{"learner":{"attributes":{"best_iteration":"299","best_ntree_limit":"300","best_score":"0.07130540145643118"},"feature_names":[],"feature_types":[],"gradient_booster":{"model":{"gbtree_model_param":{"num_parallel_tree":"1","num_trees":"300","size_leaf_vector":"0"},"tree_info":[0,0,0,0,0,0,0,0,0,0,0,0,0,0,0,0,0,0,0,0,0,0,0,0,0,0,0,0,0,0,0,0,0,0,0,0,0,0,0,0,0,0,0,0,0,0,0,0,0,0,0,0,0,0,0,0,0,0,0,0,0,0,0,0,0,0,0,0,0,0,0,0,0,0,0,0,0,0,0,0,0,0,0,0,0,0,0,0,0,0,0,0,0,0,0,0,0,0,0,0,0,0,0,0,0,0,0,0,0,0,0,0,0,0,0,0,0,0,0,0,0,0,0,0,0,0,0,0,0,0,0,0,0,0,0,0,0,0,0,0,0,0,0,0,0,0,0,0,0,0,0,0,0,0,0,0,0,0,0,0,0,0,0,0,0,0,0,0,0,0,0,0,0,0,0,0,0,0,0,0,0,0,0,0,0,0,0,0,0,0,0,0,0,0,0,0,0,0,0,0,0,0,0,0,0,0,0,0,0,0,0,0,0,0,0,0,0,0,0,0,0,0,0,0,0,0,0,0,0,0,0,0,0,0,0,0,0,0,0,0,0,0,0,0,0,0,0,0,0,0,0,0,0,0,0,0,0,0,0,0,0,0,0,0,0,0,0,0,0,0,0,0,0,0,0,0,0,0,0,0,0,0,0,0,0,0,0,0,0,0,0,0,0,0,0,0,0,0,0,0],"trees":[{"base_weights":[2.1655532E-2,-1.9451903E0,3.1043732E-1,-1.9588603E0,1.1764706E0,-1.9972869E0,5.383018E-1,1.6000001E-1,-1.9676836E0,-6.666667E-2,1.586207E-1,-5E-2,-1.9981897E-1,1.0375935E-1,1.4034994E0,-1.9726562E0,9.3333334E-1,-1.6731771E0,3.0780157E-1,1.5534048E0,-1.5771905E0,1.1111112E-1,-1.9754293E0,-0E0,1.2727273E-1,1.6410257E0,-1.7571714E0,1.190597E-1,1.7460523E0,-1.7160494E0,1.6289548E0,-1.9553903E0,-4.4324324E-1,-1.9776474E-1,6.666667E-2,-1E-1,1.8378378E-1,-1.8256131E-1,1.3939394E-1,1.3030303E-1,-9.098149E-3,-1.4615385E-1,1.7983633E-1,-1.8466453E-1,1.4666668E-1,1.6856393E-1,-1.6485356E-1,-1.9625469E-1,-5E-2,-9.24138E-2,1.1818182E-1],"categories":[],"categories_nodes":[],"categories_segments":[],"categories_sizes":[],"default_left":[0,1,0,0,0,0,1,0,1,0,0,0,0,0,1,0,0,0,1,0,0,0,1,0,0,0,1,0,0,0,1,1,0,0,0,0,0,0,0,0,0,0,0,0,0,0,0,0,0,0,0],"id":0,"left_children":[1,3,5,7,9,11,13,-1,15,-1,-1,-1,-1,17,19,21,23,25,27,29,31,-1,33,-1,-1,35,37,39,41,43,45,47,49,-1,-1,-1,-1,-1,-1,-1,-1,-1,-1,-1,-1,-1,-1,-1,-1,-1,-1],"loss_changes":[8.01337E3,7.93833E1,6.470062E3,5.9629395E1,7.476673E0,4.9560547E-1,4.2096294E3,0E0,2.7732422E1,0E0,0E0,0E0,0E0,2.7033843E3,1.6751274E3,1.7519043E1,1.1878788E0,2.166753E2,1.8152365E3,8.833135E2,7.622061E1,0E0,1.1812988E1,0E0,0E0,1.1973667E1,1.6418726E2,1.4705787E3,1.3279346E2,3.6376053E1,6.5018555E2,4.196167E-1,3.723577E1,0E0,0E0,0E0,0E0,0E0,0E0,0E0,0E0,0E0,0E0,0E0,0E0,0E0,0E0,0E0,0E0,0E0,0E0],"parents":[2147483647,0,0,1,1,2,2,3,3,4,4,5,5,6,6,8,8,13,13,14,14,15,15,16,16,17,17,18,18,19,19,20,20,22,22,25,25,26,26,27,27,28,28,29,29,30,30,31,31,32,32],"right_children":[2,4,6,8,10,12,14,-1,16,-1,-1,-1,-1,18,20,22,24,26,28,30,32,-1,34,-1,-1,36,38,40,42,44,46,48,50,-1,-1,-1,-1,-1,-1,-1,-1,-1,-1,-1,-1,-1,-1,-1,-1,-1,-1],"split_conditions":[9.193195E-1,3.461913E-2,1.6750046E0,2.4967211E-1,4.7257196E-2,6.7170836E-2,3.6679633E-2,1.6000001E-1,4.336786E-2,-6.666667E-2,1.586207E-1,-5E-2,-1.9981897E-1,2.8002886E-2,5.4110087E-2,6.6163205E-2,1.0220581E-1,1.1794925E0,3.1292867E-2,2.00001E0,6.9996333E-1,1.1111112E-1,4.4883203E-2,-0E0,1.2727273E-1,1.2819977E-1,4.7763515E-2,5.164344E-1,1.6072038E0,1.1056009E-1,6.705698E-2,1.13444686E-1,7.795633E-2,-1.9776474E-1,6.666667E-2,-1E-1,1.8378378E-1,-1.8256131E-1,1.3939394E-1,1.3030303E-1,-9.098149E-3,-1.4615385E-1,1.7983633E-1,-1.8466453E-1,1.4666668E-1,1.6856393E-1,-1.6485356E-1,-1.9625469E-1,-5E-2,-9.24138E-2,1.1818182E-1],"split_indices":[9908,3970,3324,4086,347,647,1224,0,3242,0,0,0,0,1224,5343,7519,1415,7006,682,5541,5552,0,6885,0,0,6158,3262,2084,5167,1222,8953,79,347,0,0,0,0,0,0,0,0,0,0,0,0,0,0,0,0,0,0],"split_type":[0,0,0,0,0,0,0,0,0,0,0,0,0,0,0,0,0,0,0,0,0,0,0,0,0,0,0,0,0,0,0,0,0,0,0,0,0,0,0,0,0,0,0,0,0,0,0,0,0,0,0],"sum_hessian":[1.410625E4,1.80525E3,1.2301E4,1.79775E3,7.5E0,1.10475E3,1.119625E4,4E0,1.79375E3,1.25E0,6.25E0,1E0,1.10375E3,7.45375E3,3.7425E3,1.791E3,2.75E0,7.67E2,6.68675E3,3.56375E3,1.7875E2,1.25E0,1.78975E3,1E0,1.75E0,1.85E1,7.485E2,5.912E3,7.7475E2,8E1,3.48375E3,1.335E2,4.525E1,1.7885E3,1.25E0,1E0,1.75E1,7.33E2,1.55E1,8.9E2,5.022E3,1.2E1,7.6275E2,7.725E1,2.75E0,3.425E3,5.875E1,1.325E2,1E0,3.525E1,1E1],"tree_param":{"num_deleted":"0","num_feature":"10007","num_nodes":"51","size_leaf_vector":"0"}},{"base_weights":[2.005631E-2,-1.7702477E0,2.8162253E-1,-1.7851465E0,1.5861206E-1,-1.4929244E-1,1.2710028E0,-1.7927495E0,1.460247E-1,-3.6731043E-1,1.5620521E0,1.4066651E0,-1.4505453E0,-1.7959703E0,1.23056106E-1,-5.347844E-1,1.1558595E0,-1.6492696E0,1.6192851E0,-1.564784E0,1.4737588E0,-1.7642201E0,-4.4914982E-1,-1.7992717E0,2.6202196E-1,-6.792227E-1,1.3254466E0,-1.6128256E0,1.3929242E0,-4.0929433E-2,-1.8047503E-1,-8.4226E-1,1.659346E0,-1.6764323E0,1.329084E-1,-2.0920244E-1,1.5151243E0,-1.8011079E0,9.22673E-2,-8.5331035E-1,8.724372E-1,7.8039095E-2,-1.8015078E-1,1.2983476E-1,-1.0070334E-1,-1.6953017E-1,-5.2903093E-2,1.4610009E-1,-1.718203E-1,1.2445717E-1,-1.7327957E-1,1.5174186E-1,-6.7590736E-2,-1.2558804E-1,9.930605E-2,-1.7340954E-1,1.6867894E-1,7.7260606E-2,-1.7271264E-1,1.5621455E-1,-1.3797584E-1,-1.808245E-1,-5.7665892E-2,-1.06236055E-1,1.4506899E-1,-1.1789731E-1,1.2667507E-1],"categories":[],"categories_nodes":[],"categories_segments":[],"categories_sizes":[],"default_left":[0,1,1,1,0,1,1,1,0,1,0,0,0,1,0,1,0,0,0,0,0,1,0,0,0,0,1,0,1,0,0,1,0,0,0,0,1,0,0,1,0,0,0,0,0,0,0,0,0,0,0,0,0,0,0,0,0,0,0,0,0,0,0,0,0,0,0],"id":1,"left_children":[1,3,5,7,-1,9,11,13,-1,15,17,19,21,23,-1,25,27,29,31,33,35,37,39,41,43,45,47,49,51,-1,-1,53,55,57,-1,-1,59,61,-1,63,65,-1,-1,-1,-1,-1,-1,-1,-1,-1,-1,-1,-1,-1,-1,-1,-1,-1,-1,-1,-1,-1,-1,-1,-1,-1,-1],"loss_changes":[6.589256E3,9.252832E1,5.2344736E3,4.6694336E1,0E0,3.1918352E3,1.3773584E3,1.956836E1,0E0,1.9361401E3,1.803457E2,7.0978516E2,5.491815E1,1.2571777E1,0E0,1.8378252E3,4.9578455E2,2.6202774E0,9.510693E1,2.7701706E1,5.151157E2,1.5013672E1,2.4057068E1,1.1663574E1,6.2070036E0,9.6734814E2,2.0588098E2,2.2645493E1,1.7955627E2,0E0,0E0,1.3303063E1,9.003711E1,1.0814087E1,0E0,0E0,4.692661E2,1.21520996E-1,0E0,1.7883425E1,1.0161654E1,0E0,0E0,0E0,0E0,0E0,0E0,0E0,0E0,0E0,0E0,0E0,0E0,0E0,0E0,0E0,0E0,0E0,0E0,0E0,0E0,0E0,0E0,0E0,0E0,0E0,0E0],"parents":[2147483647,0,0,1,1,2,2,3,3,5,5,6,6,7,7,9,9,10,10,11,11,12,12,13,13,15,15,16,16,17,17,18,18,19,19,20,20,21,21,22,22,23,23,24,24,25,25,26,26,27,27,28,28,31,31,32,32,33,33,36,36,37,37,39,39,40,40],"right_children":[2,4,6,8,-1,10,12,14,-1,16,18,20,22,24,-1,26,28,30,32,34,36,38,40,42,44,46,48,50,52,-1,-1,54,56,58,-1,-1,60,62,-1,64,66,-1,-1,-1,-1,-1,-1,-1,-1,-1,-1,-1,-1,-1,-1,-1,-1,-1,-1,-1,-1,-1,-1,-1,-1,-1,-1],"split_conditions":[9.193195E-1,1.3246113E-1,3.6679633E-2,1.5448883E-1,1.5861206E-1,2.844761E-2,5.4110087E-2,6.477025E-2,1.460247E-1,3.349925E-2,1.9966105E-1,2.00001E0,6.9996333E-1,4.207564E-2,1.23056106E-1,7.31521E-2,2.8002886E-2,5.1661186E-2,2.8886594E-2,1.1056009E-1,1.2654877E0,2.1978919E-1,7.795633E-2,2.430182E-1,3.5236627E-1,1.3786329E0,1.7292907E-2,2.8511012E-1,3.582738E-2,-4.0929433E-2,-1.8047503E-1,3.42488E-2,3.5061204E-1,1.8798703E-1,1.329084E-1,-2.0920244E-1,6.578236E-2,1.18184604E-1,9.22673E-2,1.1046192E-1,1.841346E-1,7.8039095E-2,-1.8015078E-1,1.2983476E-1,-1.0070334E-1,-1.6953017E-1,-5.2903093E-2,1.4610009E-1,-1.718203E-1,1.2445717E-1,-1.7327957E-1,1.5174186E-1,-6.7590736E-2,-1.2558804E-1,9.930605E-2,-1.7340954E-1,1.6867894E-1,7.7260606E-2,-1.7271264E-1,1.5621455E-1,-1.3797584E-1,-1.808245E-1,-5.7665892E-2,-1.06236055E-1,1.4506899E-1,-1.1789731E-1,1.2667507E-1],"split_indices":[9908,5934,1224,4633,0,5934,5343,8434,0,1990,6432,5541,5552,4078,0,4504,1224,1415,1224,1222,6366,1990,347,3251,7857,6817,9325,3262,2600,0,0,837,9411,9581,0,0,8953,347,0,6342,4382,0,0,0,0,0,0,0,0,0,0,0,0,0,0,0,0,0,0,0,0,0,0,0,0,0,0],"split_type":[0,0,0,0,0,0,0,0,0,0,0,0,0,0,0,0,0,0,0,0,0,0,0,0,0,0,0,0,0,0,0,0,0,0,0,0,0,0,0,0,0,0,0,0,0,0,0,0,0,0,0,0,0,0,0,0,0,0,0,0,0,0,0,0,0,0,0],"sum_hessian":[1.4069032E4,1.7927424E3,1.227629E4,1.7852858E3,7.4566417E0,8.552277E3,3.7240122E3,1.7815597E3,3.7261019E0,7.5865664E3,9.657108E2,3.5476538E3,1.7635854E2,1.7800692E3,1.4904041E0,6.8356313E3,7.5093506E2,1.6422678E1,9.492881E2,7.7842354E1,3.4698113E3,1.3371284E2,4.264568E1,1.7773438E3,2.7254364E0,6.343707E3,4.919246E2,5.876883E1,6.9216626E2,2.2345262E0,1.4188152E1,1.4881288E1,9.344068E2,7.535575E1,2.4866035E0,3.9222115E1,3.4305894E3,1.322272E2,1.4856486E0,3.2929646E1,9.716035E0,1.2378571E0,1.776106E3,1.4875795E0,1.2378571E0,8.156147E2,5.5280923E3,4.714478E2,2.0476778E1,1.990316E0,5.677851E1,6.531299E2,3.903635E1,1.2402003E1,2.4792845E0,6.9972053E0,9.274096E2,1.2394037E0,7.411635E1,3.3762104E3,5.4378853E1,1.3098692E2,1.2402762E0,3.068444E1,2.245203E0,1.2456455E0,8.470389E0],"tree_param":{"num_deleted":"0","num_feature":"10007","num_nodes":"67","size_leaf_vector":"0"}},{"base_weights":[1.6601598E-2,-1.6354145E0,2.538344E-1,-1.6463735E0,1.3709529E-1,-1.7455262E-1,4.478237E-1,1.3825701E-1,-1.653993E0,-1.4570464E0,5.8835876E-1,1.3339487E-1,-1.6568472E0,-1.5545437E0,6.890993E-1,2.852626E-1,1.3854054E0,-1.6599345E0,1.1576732E-1,-1.6056617E0,2.0542407E-1,-1.2385215E0,1.1615757E0,8.261596E-2,1.500619E0,1.447288E0,-1.140663E0,-1.6626887E-1,1.2123809E-1,-1.6565621E-1,1.7542315E-1,-2.8285396E-3,-1.4814232E-1,1.416439E-1,-1.2190642E-1,-8.716641E-3,1.3545735E-1,-1.3898367E-1,1.5324757E-1,-1.2972459E-1,1.4865053E-1,-1.6728134E-1,-1.9195115E-2],"categories":[],"categories_nodes":[],"categories_segments":[],"categories_sizes":[],"default_left":[0,1,0,0,0,0,0,0,0,1,1,0,1,1,0,1,1,1,0,1,0,0,1,1,0,0,0,0,0,0,0,0,0,0,0,0,0,0,0,0,0,0,0],"id":2,"left_children":[1,3,5,7,-1,-1,9,-1,11,13,15,-1,17,19,21,23,25,27,-1,29,-1,31,33,35,37,39,41,-1,-1,-1,-1,-1,-1,-1,-1,-1,-1,-1,-1,-1,-1,-1,-1],"loss_changes":[5.44531E3,5.9739746E1,4.7130005E3,4.2416992E1,0E0,0E0,2.9658315E3,0E0,1.7004883E1,1.6036267E2,2.4916226E3,0E0,1.6986328E1,1.3768738E2,3.2198418E1,1.8408087E3,4.4586523E2,1.5719727E1,0E0,1.2584949E2,0E0,2.0548573E0,1.8497753E1,1.3838701E3,1.0048584E2,3.0052295E2,3.426644E1,0E0,0E0,0E0,0E0,0E0,0E0,0E0,0E0,0E0,0E0,0E0,0E0,0E0,0E0,0E0,0E0],"parents":[2147483647,0,0,1,1,2,2,3,3,6,6,8,8,9,9,10,10,12,12,13,13,14,14,15,15,16,16,17,17,19,19,21,21,22,22,23,23,24,24,25,25,26,26],"right_children":[2,4,6,8,-1,-1,10,-1,12,14,16,-1,18,20,22,24,26,28,-1,30,-1,32,34,36,38,40,42,-1,-1,-1,-1,-1,-1,-1,-1,-1,-1,-1,-1,-1,-1,-1,-1],"split_conditions":[9.193195E-1,1.3246113E-1,1.6750046E0,2.4967211E-1,1.3709529E-1,-1.7455262E-1,2.8002886E-2,1.3825701E-1,2.5770511E-2,2.8215507E-2,5.483666E-2,1.3339487E-1,6.477025E-2,1.205687E-1,7.327908E-2,7.730983E-3,4.2111166E-2,5.7718813E-2,1.1576732E-1,8.610243E-2,2.0542407E-1,4.080432E-2,2.5945093E-2,4.119877E-3,1.6686301E-1,1.9608967E-1,6.9996333E-1,-1.6626887E-1,1.2123809E-1,-1.6565621E-1,1.7542315E-1,-2.8285396E-3,-1.4814232E-1,1.416439E-1,-1.2190642E-1,-8.716641E-3,1.3545735E-1,-1.3898367E-1,1.5324757E-1,-1.2972459E-1,1.4865053E-1,-1.6728134E-1,-1.9195115E-2],"split_indices":[9908,5934,3324,4086,0,0,1224,0,9429,5593,347,0,8434,4633,9727,5934,5343,3251,0,7526,0,1797,3216,1990,6432,8953,5552,0,0,0,0,0,0,0,0,0,0,0,0,0,0,0,0],"split_type":[0,0,0,0,0,0,0,0,0,0,0,0,0,0,0,0,0,0,0,0,0,0,0,0,0,0,0,0,0,0,0,0,0,0,0,0,0,0,0,0,0,0,0],"sum_hessian":[1.3892144E4,1.7436951E3,1.2148448E4,1.7378126E3,5.8824816E0,1.0737537E3,1.1074694E4,3.9077916E0,1.7339048E3,7.602729E2,1.0314422E4,1.2096419E0,1.7326952E3,7.2749896E2,3.2773922E1,7.4737188E3,2.8407026E3,1.7312064E3,1.4887662E0,7.1788525E2,9.613687E0,6.13261E0,2.6641312E1,6.406566E3,1.0671531E3,2.773193E3,6.750952E1,1.7299686E3,1.237707E0,7.0767145E2,1.0213829E1,1.2117281E0,4.9208817E0,2.4430845E1,2.2104661E0,5.652937E3,7.536291E2,1.1168522E1,1.0559845E3,3.861651E1,2.7345767E3,4.2760887E1,2.4748636E1],"tree_param":{"num_deleted":"0","num_feature":"10007","num_nodes":"43","size_leaf_vector":"0"}},{"base_weights":[1.5501352E-2,-1.5316964E0,2.3220661E-1,-1.5450097E0,1.3652565E-1,-1.6257224E0,4.0764567E-1,-1.5536087E0,7.3896825E-1,-1.6266412E-1,-4.470718E-2,-1.2851605E0,5.4029316E-1,1.16688065E-1,-1.5563421E0,1.4481865E-1,-9.786516E-2,-1.3695819E0,1.5329976E0,2.5867274E-1,1.2951964E0,-1.5586232E0,8.6698584E-2,1.5422643E0,-1.432386E0,1.7031089E0,-9.0293676E-2,1.3823651E0,7.450609E-2,1.3392421E0,-1.5424837E0,-1.5604135E-1,5.3839605E-2,1.7970001E-2,1.6377638E-1,-1.4876485E-1,1.6475117E-1,2.3828788E-2,1.7764527E-1,1.4095996E-1,-1.472938E-1,-1.2815107E-1,2.2393575E-2,-1.4222933E-1,1.3762203E-1,1.2740919E-1,-1.7642646E-1],"categories":[],"categories_nodes":[],"categories_segments":[],"categories_sizes":[],"default_left":[0,1,0,1,0,1,0,0,0,0,0,1,1,0,1,0,0,0,1,0,1,1,0,0,1,0,0,1,0,0,0,0,0,0,0,0,0,0,0,0,0,0,0,0,0,0,0],"id":3,"left_children":[1,3,5,7,-1,9,11,13,15,-1,-1,17,19,-1,21,-1,-1,23,25,27,29,31,-1,33,35,37,-1,39,41,43,45,-1,-1,-1,-1,-1,-1,-1,-1,-1,-1,-1,-1,-1,-1,-1,-1],"loss_changes":[4.580435E3,6.684033E1,3.9065144E3,3.3969482E1,0E0,3.9233398E-1,2.4594272E3,1.419873E1,9.878418E0,0E0,0E0,1.914701E2,2.1585378E3,0E0,1.0549316E1,0E0,0E0,1.4363513E2,1.13264885E1,1.530687E3,3.468789E2,7.0827637E0,0E0,1.8929787E0,1.3138562E2,1.9861526E0,0E0,8.307068E1,1.2882926E3,2.7942236E2,2.8878006E1,0E0,0E0,0E0,0E0,0E0,0E0,0E0,0E0,0E0,0E0,0E0,0E0,0E0,0E0,0E0,0E0],"parents":[2147483647,0,0,1,1,2,2,3,3,5,5,6,6,7,7,8,8,11,11,12,12,14,14,17,17,18,18,19,19,20,20,21,21,23,23,24,24,25,25,27,27,28,28,29,29,30,30],"right_children":[2,4,6,8,-1,10,12,14,16,-1,-1,18,20,-1,22,-1,-1,24,26,28,30,32,-1,34,36,38,-1,40,42,44,46,-1,-1,-1,-1,-1,-1,-1,-1,-1,-1,-1,-1,-1,-1,-1,-1],"split_conditions":[9.193195E-1,1.3246113E-1,1.6750046E0,8.230689E-2,1.3652565E-1,2.9693713E-2,2.9514072E-2,5.830843E-1,1.3582651E-1,-1.6266412E-1,-4.470718E-2,5.1762294E-2,5.483666E-2,1.16688065E-1,3.8753615E-3,1.4481865E-1,-9.786516E-2,-4.28112E-2,2.7534068E-2,1.0347409E0,4.8792128E-2,6.40413E-2,8.6698584E-2,4.691489E-2,7.394784E-2,5.4063365E-2,-9.0293676E-2,1.6109012E-2,1.0315269E0,2.00001E0,2.914902E-1,-1.5604135E-1,5.3839605E-2,1.7970001E-2,1.6377638E-1,-1.4876485E-1,1.6475117E-1,2.3828788E-2,1.7764527E-1,1.4095996E-1,-1.472938E-1,-1.2815107E-1,2.2393575E-2,-1.4222933E-1,1.3762203E-1,1.2740919E-1,-1.7642646E-1],"split_indices":[9908,5934,3324,2647,0,5249,1224,1455,12,0,0,5751,347,0,8359,0,0,10000,3216,5934,9351,7979,0,9351,7006,12,0,8705,2600,5541,804,0,0,0,0,0,0,0,0,0,0,0,0,0,0,0,0],"split_type":[0,0,0,0,0,0,0,0,0,0,0,0,0,0,0,0,0,0,0,0,0,0,0,0,0,0,0,0,0,0,0,0,0,0,0,0,0,0,0,0,0,0,0,0,0,0,0],"sum_hessian":[1.3659221E4,1.6773654E3,1.1981855E4,1.6701566E3,7.2087083E0,1.0330817E3,1.0948773E4,1.6642108E3,5.9458027E0,1.0318972E3,1.1844594E0,7.949665E2,1.0153807E4,1.2429489E0,1.6629679E3,4.3192263E0,1.6265765E0,7.72344E2,2.2622492E1,7.396026E3,2.757781E3,1.6617605E3,1.2073756E0,1.5809227E1,7.565347E2,2.1426996E1,1.1954952E0,1.0405581E3,6.355468E3,2.71615E3,4.1631268E1,1.6605986E3,1.1618404E0,1.2242078E0,1.4585019E1,7.437074E2,1.28273325E1,1.2242959E0,2.02027E1,1.0312284E3,9.329776E0,6.3008777E2,5.72538E3,3.53948E1,2.6807551E3,2.6924791E0,3.893879E1],"tree_param":{"num_deleted":"0","num_feature":"10007","num_nodes":"47","size_leaf_vector":"0"}},{"base_weights":[1.2080727E-2,-1.4435457E0,2.1283776E-1,-1.4551126E0,1.2447886E0,-1.5317905E0,3.719283E-1,-1.4611577E0,1.1983991E-1,1.3365851E-1,4.0080562E-2,-1.5327333E-1,-3.839464E-2,4.7086355E-1,-1.5858891E0,1.4251788E-1,-1.4646412E0,5.6433135E-1,-1.2914987E0,-1.653366E0,1.2331585E0,-1.4681433E0,1.02497354E-1,6.821591E-1,-8.1554693E-1,-1.3905838E0,1.0028882E0,-1.7003335E0,8.732524E-1,-3.1479456E-2,1.4249579E0,-1.4710034E-1,1.2599431E-1,-1.1694168E-1,7.779769E-2,-1.0642957E-1,1.2085923E-1,-1.4934807E-1,8.4446006E-2,1.2940773E-1,-1.080689E-1,-1.7364018E-1,1.4505735E-1,-5.9926685E-2,1.1445265E-1,1.5326837E-1,2.5751248E-2],"categories":[],"categories_nodes":[],"categories_segments":[],"categories_sizes":[],"default_left":[0,1,0,1,1,1,1,0,0,0,0,0,0,1,1,0,1,1,1,1,0,1,0,0,1,1,1,1,0,0,1,0,0,0,0,0,0,0,0,0,0,0,0,0,0,0,0],"id":4,"left_children":[1,3,5,7,9,11,13,15,-1,-1,-1,-1,-1,17,19,-1,21,23,25,27,29,31,-1,33,35,37,39,41,43,-1,45,-1,-1,-1,-1,-1,-1,-1,-1,-1,-1,-1,-1,-1,-1,-1,-1],"loss_changes":[3.9182705E3,5.2345215E1,3.271025E3,2.7714844E1,4.5445442E-2,4.7753906E-1,2.0925288E3,1.832959E1,0E0,0E0,0E0,0E0,0E0,1.6941821E3,1.0089685E2,0E0,1.557666E1,1.5879778E3,1.1917413E2,6.1766235E1,4.225567E0,1.4431641E1,0E0,1.5969067E3,3.88262E2,1.155719E2,1.4763441E1,5.9234497E1,4.652961E0,0E0,1.051609E0,0E0,0E0,0E0,0E0,0E0,0E0,0E0,0E0,0E0,0E0,0E0,0E0,0E0,0E0,0E0,0E0],"parents":[2147483647,0,0,1,1,2,2,3,3,4,4,5,5,6,6,7,7,13,13,14,14,16,16,17,17,18,18,19,19,20,20,21,21,23,23,24,24,25,25,26,26,27,27,28,28,30,30],"right_children":[2,4,6,8,10,12,14,16,-1,-1,-1,-1,-1,18,20,-1,22,24,26,28,30,32,-1,34,36,38,40,42,44,-1,46,-1,-1,-1,-1,-1,-1,-1,-1,-1,-1,-1,-1,-1,-1,-1,-1],"split_conditions":[9.193195E-1,1.3246113E-1,1.6750046E0,1.5448883E-1,4.8771694E-2,5.2016724E-2,7.817178E-3,2.5770511E-2,1.1983991E-1,1.3365851E-1,4.0080562E-2,-1.5327333E-1,-3.839464E-2,4.361971E-2,3.5337772E-2,1.4251788E-1,1.2282348E-1,3.1339902E-2,7.421221E-3,1.4726098E-1,-4.071673E-3,9.936855E-2,1.02497354E-1,2.6584584E-2,3.0713987E-2,2.448813E-2,8.0451824E-2,7.167254E-2,1.2972319E-1,-3.1479456E-2,2.1146147E-2,-1.4710034E-1,1.2599431E-1,-1.1694168E-1,7.779769E-2,-1.0642957E-1,1.2085923E-1,-1.4934807E-1,8.4446006E-2,1.2940773E-1,-1.080689E-1,-1.7364018E-1,1.4505735E-1,-5.9926685E-2,1.1445265E-1,1.5326837E-1,2.5751248E-2],"split_indices":[9908,5934,3324,4633,4483,2686,9325,9429,0,0,0,0,0,2600,4851,0,5748,8953,4504,2708,10000,3970,0,1224,5934,682,7453,3659,2709,0,5735,0,0,0,0,0,0,0,0,0,0,0,0,0,0,0,0],"split_type":[0,0,0,0,0,0,0,0,0,0,0,0,0,0,0,0,0,0,0,0,0,0,0,0,0,0,0,0,0,0,0,0,0,0,0,0,0,0,0,0,0,0,0,0,0,0,0],"sum_hessian":[1.3406249E4,1.6241143E3,1.1782135E4,1.617613E3,6.5012474E0,9.83892E2,1.0798243E4,1.6143845E3,3.2284513E0,5.3370914E0,1.1641562E0,9.827495E2,1.1424842E0,1.0279542E4,5.187012E2,1.4540888E0,1.6129304E3,9.762464E3,5.170776E2,5.0697955E2,1.1721605E1,1.6110745E3,1.8560066E0,8.994896E3,7.675682E2,4.9604916E2,2.1028383E1,4.9804834E2,8.93121E0,1.2215536E0,1.0500052E1,1.6098475E3,1.2269866E0,4.420254E2,8.552871E3,6.839865E2,8.358167E1,4.7453436E2,2.15148E1,1.878238E1,2.246004E0,4.9285556E2,5.192782E0,1.2012967E0,7.7299128E0,9.32659E0,1.173462E0],"tree_param":{"num_deleted":"0","num_feature":"10007","num_nodes":"47","size_leaf_vector":"0"}},{"base_weights":[1.4121588E-2,-1.3831217E0,1.9910417E-1,-1.3927945E0,1.0279206E0,-1.20552324E-1,9.6512383E-1,-1.399365E0,1.12215534E-1,-2.0399557E-2,1.3148704E-1,2.3688685E-2,-1.510051E0,1.0859259E0,-1.3319529E0,-1.4033792E0,7.2750366E-1,-1.11298546E-1,1.27627E0,-1.5225079E0,1.1062888E0,-1.4684107E0,1.1482507E0,-1.6408343E0,-3.5852903E-1,1.2315025E-1,-1.4062965E0,-1.567371E-2,1.2091609E-1,-2.2650893E-1,1.2475475E0,-9.350114E-1,1.3561366E0,1.07331E-1,-1.5296258E0,1.3336806E-1,3.010199E-2,-1.5807778E0,1.2320345E-1,-1.5175157E0,1.2037247E0,7.5724475E-2,-1.6692259E0,-8.383041E-1,8.9008087E-1,-1.4092696E-1,6.532105E-2,-1.2404155E-2,-1.5115657E-1,1.3363592E-1,-1.2397903E-1,-1.22256376E-1,1.8165813E-1,-1.1743506E-1,1.3866396E-1,5.846442E-2,-1.5336093E-1,4.881469E-2,-1.6204186E-1,-2.3336656E-1,-6.641729E-2,-2.0706625E-1,1.2475192E-1,-1.6836677E-1,-9.3378825E-3,1.3799396E-1,-1.1195152E-1,-1.1803478E-1,1.2848108E-1],"categories":[],"categories_nodes":[],"categories_segments":[],"categories_sizes":[],"default_left":[0,1,1,1,0,1,1,1,0,0,0,1,1,0,0,0,0,1,0,0,1,0,0,0,0,0,1,0,0,1,1,1,0,0,0,0,0,0,0,0,0,0,1,0,0,0,0,0,0,0,0,0,0,0,0,0,0,0,0,0,0,0,0,0,0,0,0,0,0],"id":5,"left_children":[1,3,5,7,9,11,13,15,-1,-1,-1,17,19,21,23,25,27,29,31,33,35,37,39,41,43,-1,45,-1,-1,47,49,51,53,-1,55,-1,-1,57,-1,59,61,-1,63,65,67,-1,-1,-1,-1,-1,-1,-1,-1,-1,-1,-1,-1,-1,-1,-1,-1,-1,-1,-1,-1,-1,-1,-1,-1],"loss_changes":[3.3879355E3,3.7170654E1,2.8344873E3,2.6799805E1,2.6362538E0,1.637105E3,9.4720654E2,1.4025879E1,0E0,0E0,0E0,1.2515042E3,2.6720581E1,5.172512E2,5.0746124E1,1.3421631E1,1.6921407E0,1.046345E3,1.2843665E2,1.5775879E1,3.711419E-1,2.5487015E1,4.6941748E2,1.0069214E1,2.614924E1,0E0,1.0224365E1,0E0,0E0,8.1099646E2,1.1705682E2,2.2549429E1,5.5302612E1,0E0,7.3253174E0,0E0,0E0,6.9349976E0,0E0,4.3650208E1,4.4684082E2,0E0,2.7586975E0,2.0975636E1,1.1533004E1,0E0,0E0,0E0,0E0,0E0,0E0,0E0,0E0,0E0,0E0,0E0,0E0,0E0,0E0,0E0,0E0,0E0,0E0,0E0,0E0,0E0,0E0,0E0,0E0],"parents":[2147483647,0,0,1,1,2,2,3,3,4,4,5,5,6,6,7,7,11,11,12,12,13,13,14,14,15,15,16,16,17,17,18,18,19,19,20,20,21,21,22,22,23,23,24,24,26,26,29,29,30,30,31,31,32,32,34,34,37,37,39,39,40,40,42,42,43,43,44,44],"right_children":[2,4,6,8,10,12,14,16,-1,-1,-1,18,20,22,24,26,28,30,32,34,36,38,40,42,44,-1,46,-1,-1,48,50,52,54,-1,56,-1,-1,58,-1,60,62,-1,64,66,68,-1,-1,-1,-1,-1,-1,-1,-1,-1,-1,-1,-1,-1,-1,-1,-1,-1,-1,-1,-1,-1,-1,-1,-1],"split_conditions":[9.193195E-1,3.461913E-2,3.6679633E-2,4.0759895E-2,3.5806708E-2,6.2438664E-3,5.4110087E-2,4.1807014E-2,1.12215534E-1,-2.0399557E-2,1.3148704E-1,3.828009E-2,6.0574085E-2,4.3084738E-1,6.9996333E-1,6.6163205E-2,1.8274644E-1,7.9440504E-2,2.8002886E-2,4.1255918E-1,3.6368303E-2,1.0913566E-1,1.8981595E-1,1.2008624E-1,6.3845366E-2,1.2315025E-1,1.2282348E-1,-1.567371E-2,1.2091609E-1,7.817178E-3,2.645325E-2,5.9631363E-2,1.6072038E0,1.07331E-1,2.0968011E-1,1.3336806E-1,3.010199E-2,1.6080557E-1,1.2320345E-1,3.166278E-1,1.2654877E0,7.5724475E-2,1.4109875E-1,1.7505546E-1,1.841346E-1,-1.4092696E-1,6.532105E-2,-1.2404155E-2,-1.5115657E-1,1.3363592E-1,-1.2397903E-1,-1.22256376E-1,1.8165813E-1,-1.1743506E-1,1.3866396E-1,5.846442E-2,-1.5336093E-1,4.881469E-2,-1.6204186E-1,-2.3336656E-1,-6.641729E-2,-2.0706625E-1,1.2475192E-1,-1.6836677E-1,-9.3378825E-3,1.3799396E-1,-1.1195152E-1,-1.1803478E-1,1.2848108E-1],"split_indices":[9908,3970,1224,4633,449,1779,5343,3242,0,0,0,682,1782,5541,5552,7519,9884,4504,1224,5173,5767,1222,5767,6838,1222,0,5748,0,0,9325,7606,3767,5167,0,1997,0,0,61,0,3216,6366,0,8460,6624,4382,0,0,0,0,0,0,0,0,0,0,0,0,0,0,0,0,0,0,0,0,0,0,0,0],"split_type":[0,0,0,0,0,0,0,0,0,0,0,0,0,0,0,0,0,0,0,0,0,0,0,0,0,0,0,0,0,0,0,0,0,0,0,0,0,0,0,0,0,0,0,0,0,0,0,0,0,0,0,0,0,0,0,0,0,0,0,0,0,0,0,0,0,0,0,0,0],"sum_hessian":[1.3105808E4,1.5314803E3,1.1574327E4,1.5257816E3,5.6988387E0,8.167083E3,3.407244E3,1.5222482E3,3.533431E0,1.1312616E0,4.5675774E0,7.399898E3,7.6718524E2,3.237512E3,1.6973196E2,1.5197201E3,2.5280972E0,6.680834E3,7.190639E2,7.6396594E2,3.2193189E0,7.657499E1,3.160937E3,1.2832649E2,4.1405476E1,1.2150304E0,1.518505E3,1.1293644E0,1.3987327E0,6.1594365E3,5.2139734E2,2.4692425E1,6.9437146E2,1.679473E0,7.6228644E2,1.998726E0,1.220593E0,7.391401E1,2.6609821E0,6.3900288E1,3.0970366E3,1.2011497E0,1.2712534E2,3.0149298E1,1.1256178E1,1.5166315E3,1.8735931E0,5.7055835E3,4.5385318E2,5.0386914E2,1.7528172E1,2.2859232E1,1.8331916E0,7.823786E0,6.8654767E2,1.159413E0,7.61127E2,1.176866E0,7.273714E1,3.1775238E1,3.212505E1,4.0264812E1,3.0567717E3,1.259031E2,1.2222449E0,2.9524796E0,2.7196817E1,1.4836895E0,9.772489E0],"tree_param":{"num_deleted":"0","num_feature":"10007","num_nodes":"69","size_leaf_vector":"0"}},{"base_weights":[1.6615715E-2,-1.3204755E0,1.8502152E-1,-1.3321606E0,1.2826572E-1,-1.4214715E0,3.243801E-1,-1.3401303E0,7.188068E-1,-1.4224567E0,-2.8831149E-2,9.6835256E-2,1.0115407E0,1.2159629E-1,-1.3432024E0,-8.182981E-2,1.351271E-1,-1.4716795E-1,-1.3768716E-1,-5.6000102E-2,1.1557491E0,-1.1086353E0,1.0903646E0,-1.345991E0,1.2960286E-1,-1.7332016E-1,1.173186E0,-1.2070159E0,1.1902432E0,-1.2260629E0,1.24247886E-1,-1.8124094E0,1.133217E0,9.690258E-2,-1.348567E-1,9.1548316E-2,-3.1507585E-2,-1.5587034E-2,1.4004873E-1,-1.6002785E-1,1.0137459E-1,1.2211293E-1,-1.223424E-1,-1.3485943E-1,1.0717378E-1,-1.8996607E-1,3.7697554E-3,-1.4655161E-1,1.1743003E-1],"categories":[],"categories_nodes":[],"categories_segments":[],"categories_sizes":[],"default_left":[0,1,0,1,0,1,1,0,1,1,0,1,0,0,1,0,0,0,0,1,0,1,0,0,0,0,0,1,1,1,0,1,0,0,0,0,0,0,0,0,0,0,0,0,0,0,0,0,0],"id":6,"left_children":[1,3,5,7,-1,9,11,13,15,17,-1,19,21,-1,23,-1,-1,-1,-1,25,27,29,31,33,-1,35,37,39,41,43,-1,45,47,-1,-1,-1,-1,-1,-1,-1,-1,-1,-1,-1,-1,-1,-1,-1,-1],"loss_changes":[2.8795657E3,4.522168E1,2.5431858E3,2.4249512E1,0E0,6.02417E-1,1.634148E3,1.2779297E1,7.0993834E0,5.9814453E-3,0E0,1.2709745E3,4.3570874E2,0E0,1.2182129E1,0E0,0E0,0E0,0E0,9.899599E2,8.216516E1,2.7390045E1,3.1393042E2,9.758545E0,0E0,9.6744794E2,1.8091132E2,1.4503223E1,7.431091E1,2.6711151E1,0E0,6.0216064E0,2.6557617E2,0E0,0E0,0E0,0E0,0E0,0E0,0E0,0E0,0E0,0E0,0E0,0E0,0E0,0E0,0E0,0E0],"parents":[2147483647,0,0,1,1,2,2,3,3,5,5,6,6,7,7,8,8,9,9,11,11,12,12,14,14,19,19,20,20,21,21,22,22,23,23,25,25,26,26,27,27,28,28,29,29,31,31,32,32],"right_children":[2,4,6,8,-1,10,12,14,16,18,-1,20,22,-1,24,-1,-1,-1,-1,26,28,30,32,34,-1,36,38,40,42,44,-1,46,48,-1,-1,-1,-1,-1,-1,-1,-1,-1,-1,-1,-1,-1,-1,-1,-1],"split_conditions":[9.193195E-1,1.3698193E-1,1.6750046E0,8.068082E-2,1.2826572E-1,1.0348565E-1,5.483666E-2,1.0563956E0,6.9572456E-2,5.133287E-3,-2.8831149E-2,7.730983E-3,9.72191E-1,1.2159629E-1,1.6620408E-1,-8.182981E-2,1.351271E-1,-1.4716795E-1,-1.3768716E-1,4.7828317E-2,1.3517793E-1,6.4073086E-2,1.231027E-1,4.02506E-2,1.2960286E-1,3.7918133E-1,4.765781E-2,4.3489363E-2,1.3518384E-2,1.362081E-1,1.24247886E-1,1.5663186E-1,2.173316E-1,9.690258E-2,-1.348567E-1,9.1548316E-2,-3.1507585E-2,-1.5587034E-2,1.4004873E-1,-1.6002785E-1,1.0137459E-1,1.2211293E-1,-1.223424E-1,-1.3485943E-1,1.0717378E-1,-1.8996607E-1,3.7697554E-3,-1.4655161E-1,1.1743003E-1],"split_indices":[9908,5934,3324,2647,0,2445,347,5097,8953,1779,0,5934,5343,0,782,0,0,0,0,1990,1121,4321,8054,9550,0,2084,347,2084,8705,3229,0,2726,5541,0,0,0,0,0,0,0,0,0,0,0,0,0,0,0,0],"split_type":[0,0,0,0,0,0,0,0,0,0,0,0,0,0,0,0,0,0,0,0,0,0,0,0,0,0,0,0,0,0,0,0,0,0,0,0,0,0,0,0,0,0,0,0,0,0,0,0,0],"sum_hessian":[1.2786102E4,1.4294958E3,1.1356605E4,1.4235938E3,5.9020934E0,9.057805E2,1.0450825E4,1.4184285E3,5.1652584E0,9.047385E2,1.0420258E0,7.851904E3,2.5989211E3,1.2287369E0,1.4171997E3,1.4201008E0,3.7451577E0,4.1997098E2,4.8476755E2,6.862387E3,9.895163E2,9.269084E1,2.5062302E3,1.4161934E3,1.0063602E0,6.265257E3,5.971305E2,1.3749024E1,9.757673E2,8.8737335E1,3.9535127E0,3.5859413E1,2.4703708E3,1.1570855E0,1.4150363E3,7.211048E2,5.544152E3,8.725502E1,5.098755E2,1.1917942E1,1.831082E0,9.6392664E2,1.18406725E1,8.463711E1,4.1002264E0,3.4218864E1,1.6405497E0,3.7906696E1,2.432464E3],"tree_param":{"num_deleted":"0","num_feature":"10007","num_nodes":"49","size_leaf_vector":"0"}},{"base_weights":[1.0702689E-2,-1.6566552E-1,9.7600687E-1,-3.1143412E-1,9.262501E-1,-1.4340998E0,1.0337853E0,-9.4308215E-1,-1.3098495E-1,-1.363198E-1,1.1086446E0,1.5951704E-2,-1.4765728E0,-1.8457001E-1,1.0695564E0,-1.0727751E0,1.822834E0,-1.3620918E0,1.8656876E-2,-1.595229E-1,1.2315481E0,-1.4972475E0,-3.200502E-2,-1.3423635E0,1.1085122E0,1.7783642E-1,-1.182676E0,1.8438972E0,1.9406972E-2,-1.3631944E-1,-2.5072182E-2,-8.3418794E-2,1.1448467E0,2.8231654E-1,-1.2066623E0,1.267788E0,-1.1724752E0,-1.5170269E0,-4.1358877E-2,-2.8443733E-2,-1.3714837E-1,-2.329081E0,1.1350332E0,7.566258E-2,-1.270522E-1,5.0589275E-2,1.854735E-1,3.989444E-3,-1.1836594E-1,-1.8329825E-1,1.2372215E-1,5.179858E-2,-1.1995292E-1,-1.3908406E-1,6.651085E-2,1.298459E-1,-6.529264E-2,-1.5156655E-1,1.1209905E-1,-1.5373765E-1,-3.9585944E-2,-9.912812E-2,-2.4953866E-1,-2.2637454E-1,1.1573167E-1],"categories":[],"categories_nodes":[],"categories_segments":[],"categories_sizes":[],"default_left":[1,1,0,0,0,0,0,1,0,0,0,0,1,0,0,0,0,1,1,1,1,1,0,0,0,0,0,0,0,0,0,1,0,1,0,1,1,1,0,0,0,0,0,0,0,0,0,0,0,0,0,0,0,0,0,0,0,0,0,0,0,0,0,0,0],"id":7,"left_children":[1,3,5,7,9,11,13,15,17,-1,19,-1,21,-1,23,25,27,29,31,33,35,37,-1,39,41,-1,43,45,-1,-1,-1,47,49,51,53,55,57,59,-1,-1,-1,61,63,-1,-1,-1,-1,-1,-1,-1,-1,-1,-1,-1,-1,-1,-1,-1,-1,-1,-1,-1,-1,-1,-1],"loss_changes":[2.1234204E3,1.6788196E3,2.6978955E2,1.0604006E3,5.202649E2,3.3171692E0,1.9584924E2,7.4353687E2,1.3334731E3,0E0,1.796189E2,0E0,5.83519E-1,0E0,1.7622949E2,6.2106055E2,2.8314514E0,6.1950684E-1,7.421035E2,4.7806828E1,9.292688E1,3.026352E-1,0E0,5.3450775E-1,1.6955249E2,0E0,3.250918E2,3.9086914E-1,0E0,0E0,0E0,8.031292E2,1.4984296E2,2.6100666E1,1.1485413E1,6.178833E1,1.4376408E1,3.5510254E-1,0E0,0E0,0E0,7.17659E-1,1.402644E2,0E0,0E0,0E0,0E0,0E0,0E0,0E0,0E0,0E0,0E0,0E0,0E0,0E0,0E0,0E0,0E0,0E0,0E0,0E0,0E0,0E0,0E0],"parents":[2147483647,0,0,1,1,2,2,3,3,4,4,5,5,6,6,7,7,8,8,10,10,12,12,14,14,15,15,16,16,17,17,18,18,19,19,20,20,21,21,23,23,24,24,26,26,27,27,31,31,32,32,33,33,34,34,35,35,36,36,37,37,41,41,42,42],"right_children":[2,4,6,8,10,12,14,16,18,-1,20,-1,22,-1,24,26,28,30,32,34,36,38,-1,40,42,-1,44,46,-1,-1,-1,48,50,52,54,56,58,60,-1,-1,-1,62,64,-1,-1,-1,-1,-1,-1,-1,-1,-1,-1,-1,-1,-1,-1,-1,-1,-1,-1,-1,-1,-1,-1],"split_conditions":[5.6111164E-2,2.7550172E-2,2.224335E-1,3.9345376E-2,1.6750046E0,2.146865E-1,1.2654877E0,8.458514E-2,1.6750046E0,-1.363198E-1,3.5276465E-2,1.5951704E-2,1.3946638E-1,-1.8457001E-1,6.9996333E-1,9.119037E-1,8.0092646E-2,5.6282215E-2,7.0534386E-2,1.0787305E-2,3.2402705E-2,1.2669303E-1,-3.200502E-2,3.7154374E-1,1.3689914E0,1.7783642E-1,-1.9508788E-1,9.686453E-2,1.9406972E-2,-1.3631944E-1,-2.5072182E-2,3.0187E-2,3.7740028E-1,1.296379E-2,1.1993441E-1,4.378103E-2,5.4643247E-2,1.500002E-1,-4.1358877E-2,-2.8443733E-2,-1.3714837E-1,3.5247064E-1,1.991755E-1,7.566258E-2,-1.270522E-1,5.0589275E-2,1.854735E-1,3.989444E-3,-1.1836594E-1,-1.8329825E-1,1.2372215E-1,5.179858E-2,-1.1995292E-1,-1.3908406E-1,6.651085E-2,1.298459E-1,-6.529264E-2,-1.5156655E-1,1.1209905E-1,-1.5373765E-1,-3.9585944E-2,-9.912812E-2,-2.4953866E-1,-2.2637454E-1,1.1573167E-1],"split_indices":[1224,2149,8953,1222,3324,1432,6366,4633,3324,0,1222,0,92,0,5552,5173,347,6643,4504,9706,6817,9650,0,83,4556,0,10001,6746,0,0,0,8953,2230,8985,2149,9441,4191,87,0,0,0,9941,7445,0,0,0,0,0,0,0,0,0,0,0,0,0,0,0,0,0,0,0,0,0,0],"split_type":[0,0,0,0,0,0,0,0,0,0,0,0,0,0,0,0,0,0,0,0,0,0,0,0,0,0,0,0,0,0,0,0,0,0,0,0,0,0,0,0,0,0,0,0,0,0,0,0,0,0,0,0,0,0,0,0,0,0,0,0,0,0,0,0,0],"sum_hessian":[1.2470492E4,1.0544722E4,1.9257703E3,9.303444E3,1.241277E3,4.4528675E1,1.8812416E3,2.0662998E3,7.237145E3,9.111478E1,1.1501621E3,1.084427E0,4.344425E1,2.2462572E1,1.8587789E3,1.974336E3,9.196389E1,7.834642E2,6.4536807E3,1.015924E2,1.0485698E3,4.239181E1,1.052436E0,2.9012774E1,1.8297662E3,7.271525E1,1.9016207E3,9.065939E1,1.3044931E0,7.8246124E2,1.0029155E0,5.918193E3,5.354877E2,7.195954E1,2.9632864E1,1.0334633E3,1.5106512E1,4.123918E1,1.1526295E0,1.0656544E0,2.7947119E1,1.3343939E1,1.8164222E3,8.207642E1,1.8195443E3,1.111527E0,8.954787E1,5.3226074E3,5.955857E2,1.5544564E1,5.199431E2,6.2646786E1,9.312752E0,2.7212183E1,2.4206812E0,1.0175386E3,1.5924659E1,1.3435225E1,1.6712872E0,4.0139416E1,1.0997666E0,2.2450266E0,1.1098913E1,1.1176211E1,1.8052461E3],"tree_param":{"num_deleted":"0","num_feature":"10007","num_nodes":"65","size_leaf_vector":"0"}},{"base_weights":[8.132054E-3,-1.2473307E0,1.5531714E-1,1.2689433E-1,-1.2548319E0,-1.3184942E0,2.7259064E-1,-1.2622389E0,1.0080901E0,-1.3195221E-1,-2.4892112E-2,3.546811E-1,-1.3704642E0,-1.2684449E0,1.0940949E-1,2.0642461E-2,1.1691853E-1,4.410225E-1,-1.130178E0,-1.4423534E0,1.1660976E0,1.4039898E-1,-1.2726269E0,5.7000303E-1,-5.756239E-1,-1.3372195E0,-1.0590904E-2,-1.4842043E0,1.412315E-1,-4.6744093E-2,1.397476E-1,-1.276583E-1,7.3283814E-2,6.389129E-2,-1.1726971E-1,-9.676264E-2,1.12568974E-1,5.462569E-2,-1.43055E-1,-1.3535249E-1,6.4313896E-2,-1.5088563E-1,1.2722929E-1],"categories":[],"categories_nodes":[],"categories_segments":[],"categories_sizes":[],"default_left":[0,0,0,0,1,1,1,1,0,0,0,1,1,0,0,0,0,1,1,1,0,0,1,1,1,0,0,1,0,0,0,0,0,0,0,0,0,0,0,0,0,0,0],"id":8,"left_children":[1,3,5,-1,7,9,11,13,15,-1,-1,17,19,21,-1,-1,-1,23,25,27,29,-1,31,33,35,37,39,41,-1,-1,-1,-1,-1,-1,-1,-1,-1,-1,-1,-1,-1,-1,-1],"loss_changes":[2.2511638E3,2.5721924E1,1.8850256E3,0E0,2.2644165E1,5.5529785E-1,1.3629397E3,1.9979248E1,3.676834E-1,0E0,0E0,1.2340104E3,8.936963E1,1.5963135E1,0E0,0E0,0E0,1.1927263E3,1.2260901E2,5.8016235E1,5.8713646E0,0E0,1.0987793E1,9.698862E2,6.842019E2,7.925824E1,7.423543E1,3.3299866E1,0E0,0E0,0E0,0E0,0E0,0E0,0E0,0E0,0E0,0E0,0E0,0E0,0E0,0E0,0E0],"parents":[2147483647,0,0,1,1,2,2,4,4,5,5,6,6,7,7,8,8,11,11,12,12,13,13,17,17,18,18,19,19,20,20,22,22,23,23,24,24,25,25,26,26,27,27],"right_children":[2,4,6,-1,8,10,12,14,16,-1,-1,18,20,22,-1,-1,-1,24,26,28,30,-1,32,34,36,38,40,42,-1,-1,-1,-1,-1,-1,-1,-1,-1,-1,-1,-1,-1,-1,-1],"split_conditions":[9.193195E-1,1.0563956E0,1.6750046E0,1.2689433E-1,1.1598392E-1,1.3200606E-1,7.817178E-3,3.9786734E-2,5.2121237E-2,-1.3195221E-1,-2.4892112E-2,3.7772585E-2,3.5337772E-2,2.5770511E-2,1.0940949E-1,2.0642461E-2,1.1691853E-1,2.7622508E-2,1.002723E-2,1.4309248E-1,-8.5024685E-3,1.4039898E-1,1.2282348E-1,1.7418548E-2,3.296881E-2,3.4972405E-1,6.3845366E-2,1.3483587E-1,1.412315E-1,-4.6744093E-2,1.397476E-1,-1.276583E-1,7.3283814E-2,6.389129E-2,-1.1726971E-1,-9.676264E-2,1.12568974E-1,5.462569E-2,-1.43055E-1,-1.3535249E-1,6.4313896E-2,-1.5088563E-1,1.2722929E-1],"split_indices":[9908,5097,3324,0,3994,2445,9325,2759,1222,0,0,2600,4851,9429,0,0,0,5343,3216,2871,10000,0,5748,326,1990,2084,1222,3659,0,0,0,0,0,0,0,0,0,0,0,0,0,0,0],"split_type":[0,0,0,0,0,0,0,0,0,0,0,0,0,0,0,0,0,0,0,0,0,0,0,0,0,0,0,0,0,0,0,0,0,0,0,0,0,0,0,0,0,0,0],"sum_hessian":[1.2180538E4,1.2773651E3,1.0903173E4,3.296821E0,1.2740682E3,8.0288104E2,1.0100292E4,1.2703524E3,3.7158947E0,8.018767E2,1.0043671E0,9.620419E3,4.7987222E2,1.2674758E3,2.8765337E0,1.003502E0,2.7123926E0,9.092418E3,5.280017E2,4.6706638E2,1.2805836E1,1.4573116E0,1.2660186E3,8.0691367E3,1.02328107E3,4.4543457E2,8.256714E1,4.6079102E2,6.2753477E0,1.4622264E0,1.134361E1,1.2638888E3,2.1297739E0,7.7628125E3,3.0632404E2,8.32008E2,1.9127307E2,2.080106E1,4.246335E2,2.6682913E1,5.5884224E1,4.571552E2,3.6358209E0],"tree_param":{"num_deleted":"0","num_feature":"10007","num_nodes":"43","size_leaf_vector":"0"}},{"base_weights":[7.844861E-3,-1.2082145E0,1.4575815E-1,-1.2201483E0,1.2065359E-1,-9.73481E-2,7.786052E-1,-1.2258017E0,1.03528775E-1,-2.3318632E-1,1.0325913E0,8.6949503E-1,-1.5508869E0,1.5296231E-1,-1.2296667E0,-1.2792008E-1,-1.0965231E-1,-1.252532E-1,1.0789748E0,-1.5121454E0,9.335153E-1,-1.5871763E0,8.526523E-2,-1.2330287E0,1.1153741E-1,-2.291742E-1,9.7048676E-1,1.1298102E0,-7.4540716E-1,7.947143E-2,-1.5612767E0,-1.5880184E0,9.9144185E-1,-1.6171902E0,6.677506E-2,-1.2361319E-1,1.1795109E-1,7.686317E-2,-3.7559852E-2,-1.1783649E-1,1.1306117E-1,-1.07015155E-1,1.1693986E-1,-1.20627575E-1,1.0867985E-1,-1.5864225E-1,-4.0201668E-2,1.0758586E-1,-1.7054753E-1,-1.858745E-1,1.0325356E-1,-1.4455448E-1,-2.0101671E-1],"categories":[],"categories_nodes":[],"categories_segments":[],"categories_sizes":[],"default_left":[0,1,1,1,0,1,1,0,0,0,0,0,1,0,1,0,1,0,1,0,0,1,0,1,0,0,0,0,1,0,0,0,0,0,0,0,0,0,0,0,0,0,0,0,0,0,0,0,0,0,0,0,0],"id":9,"left_children":[1,3,5,7,-1,9,11,13,-1,15,17,19,21,-1,23,-1,25,-1,27,29,31,33,-1,35,-1,37,39,41,43,-1,45,47,49,51,-1,-1,-1,-1,-1,-1,-1,-1,-1,-1,-1,-1,-1,-1,-1,-1,-1,-1,-1],"loss_changes":[1.9951796E3,3.6392212E1,1.6439133E3,1.6650269E1,0E0,1.185215E3,6.292218E2,1.4700317E1,0E0,8.9050574E2,8.918616E1,4.36687E2,1.1097748E1,0E0,1.0856567E1,0E0,7.962068E2,0E0,7.621857E1,9.753799E0,4.077268E2,8.5520935E0,0E0,1.0452393E1,0E0,8.1147595E2,2.1276239E2,7.015106E1,2.0424278E1,0E0,1.5159454E0,2.1493454E1,3.203606E2,4.463318E0,0E0,0E0,0E0,0E0,0E0,0E0,0E0,0E0,0E0,0E0,0E0,0E0,0E0,0E0,0E0,0E0,0E0,0E0,0E0],"parents":[2147483647,0,0,1,1,2,2,3,3,5,5,6,6,7,7,9,9,10,10,11,11,12,12,14,14,16,16,18,18,19,19,20,20,21,21,23,23,25,25,26,26,27,27,28,28,30,30,31,31,32,32,33,33],"right_children":[2,4,6,8,-1,10,12,14,-1,16,18,20,22,-1,24,-1,26,-1,28,30,32,34,-1,36,-1,38,40,42,44,-1,46,48,50,52,-1,-1,-1,-1,-1,-1,-1,-1,-1,-1,-1,-1,-1,-1,-1,-1,-1,-1,-1],"split_conditions":[9.193195E-1,1.4266935E-1,3.6679633E-2,1.0007853E-1,1.2065359E-1,2.2733184E-2,6.0340535E-2,5.830843E-1,1.03528775E-1,1.6750046E0,1.6750046E0,1.8738058E-1,9.156276E-2,1.5296231E-1,6.503486E-2,-1.2792008E-1,3.707678E-2,-1.252532E-1,4.0966004E-2,1.8798703E-1,7.247204E-1,1.2270376E-1,8.526523E-2,1.7309481E-2,1.1153741E-1,5.164344E-1,2.8002886E-2,2.3250397E-2,3.310229E-2,7.947143E-2,7.035095E-2,3.1338057E-1,1.2654877E0,6.055788E-1,6.677506E-2,-1.2361319E-1,1.1795109E-1,7.686317E-2,-3.7559852E-2,-1.1783649E-1,1.1306117E-1,-1.07015155E-1,1.1693986E-1,-1.20627575E-1,1.0867985E-1,-1.5864225E-1,-4.0201668E-2,1.0758586E-1,-1.7054753E-1,-1.858745E-1,1.0325356E-1,-1.4455448E-1,-2.0101671E-1],"split_indices":[9908,5934,1224,9799,0,5934,9351,1455,0,3324,3324,5541,228,0,8434,0,1990,0,8985,9581,4576,1465,0,7135,0,2084,1224,1224,3216,0,1224,4162,6366,5554,0,0,0,0,0,0,0,0,0,0,0,0,0,0,0,0,0,0,0],"split_type":[0,0,0,0,0,0,0,0,0,0,0,0,0,0,0,0,0,0,0,0,0,0,0,0,0,0,0,0,0,0,0,0,0,0,0,0,0,0,0,0,0,0,0,0,0,0,0,0,0,0,0,0,0],"sum_hessian":[1.1894503E4,1.210763E3,1.068374E4,1.2053009E3,5.461974E0,7.7192573E3,2.964483E3,1.2027427E3,2.5582314E0,6.8915654E3,8.276915E2,2.8537642E3,1.1071859E2,1.1317353E0,1.201611E3,7.269363E2,6.1646294E3,1.5948939E1,8.1174255E2,7.4111176E1,2.779653E3,1.0940639E2,1.3122038E0,1.2003643E3,1.2467017E0,5.551158E3,6.1347095E2,7.9010736E2,2.1635202E1,1.2290357E0,7.288213E1,6.1829006E1,2.717824E3,1.0824838E2,1.1580048E0,1.1993092E3,1.0550717E0,7.098243E2,4.841334E3,4.2102535E1,5.713684E2,1.3506487E1,7.766009E2,1.7559864E1,4.0753384E0,7.097414E1,1.9079977E0,2.2664797E0,5.9562527E1,3.799971E1,2.6798245E3,7.8597015E1,2.9651363E1],"tree_param":{"num_deleted":"0","num_feature":"10007","num_nodes":"53","size_leaf_vector":"0"}},{"base_weights":[1.1155355E-2,-1.360067E-1,8.741815E-1,-2.6168394E-1,8.43918E-1,-1.9447778E0,9.0781903E-1,-3.4054202E-1,1.0633109E0,-1.2396377E-1,9.9140096E-1,-2.0009723E0,-4.9327213E-2,-2.8797078E0,9.285187E-1,-4.1276595E-1,1.0135226E0,1.1284655E0,-1.2883906E0,-4.8160928E-1,1.103157E0,-1.0344789E-1,-2.1714683E0,-3.351369E-1,-6.339329E-2,-2.2604918E0,9.524912E-1,-4.6769634E-1,1.5192052E0,1.0922109E0,-1.4302499E0,-7.251371E-1,1.1909335E0,5.5662353E-2,-1.5576792E0,-7.816734E-1,2.116955E-1,1.1730895E0,-1.8605211E-1,-2.2441669E-1,-6.355604E-2,-8.791014E-2,-2.4045718E-1,-1.5877861E-1,9.8201036E-1,-5.7043523E-2,5.9292037E-2,1.4762145E-1,1.9041054E-1,-1.2433078E-1,1.1581578E-1,1.0379114E-2,-1.5737575E-1,9.242497E-2,-1.06810324E-1,1.2400037E-1,-9.36563E-2,-1.6517933E-1,-3.0387511E-2,-9.9980175E-2,1.5128943E-1,1.199499E-1,-1.4837615E-1,-6.9993064E-2,1.2529753E-1,-1.17019676E-1,1.0130916E-1],"categories":[],"categories_nodes":[],"categories_segments":[],"categories_sizes":[],"default_left":[1,1,0,1,0,1,0,1,1,0,0,0,0,0,0,1,1,0,0,1,1,0,1,0,0,0,0,1,0,0,0,0,1,0,0,1,0,1,1,0,0,0,0,0,0,0,0,0,0,0,0,0,0,0,0,0,0,0,0,0,0,0,0,0,0,0,0],"id":10,"left_children":[1,3,5,7,9,11,13,15,17,-1,19,21,-1,23,25,27,29,31,33,35,37,-1,39,-1,-1,41,43,45,47,49,51,53,55,-1,57,59,-1,61,63,-1,-1,-1,-1,-1,65,-1,-1,-1,-1,-1,-1,-1,-1,-1,-1,-1,-1,-1,-1,-1,-1,-1,-1,-1,-1,-1,-1],"loss_changes":[1.4619937E3,1.2113755E3,1.6077808E2,9.112029E2,3.4482404E2,6.5185547E-1,1.3265063E2,8.051206E2,7.6520996E1,0E0,1.7252234E2,8.8726807E-1,0E0,7.678894E0,1.2826257E2,8.2979675E2,8.174106E1,5.612378E1,7.6609898E0,5.964655E1,8.779883E1,0E0,2.7705383E-1,0E0,0E0,3.947754E-1,1.2438684E2,8.281803E2,7.6693726E-1,6.3743652E1,3.122097E0,1.0140326E1,4.939917E1,0E0,9.371891E-1,3.524941E1,0E0,6.644299E1,3.84767E1,0E0,0E0,0E0,0E0,0E0,1.0953906E2,0E0,0E0,0E0,0E0,0E0,0E0,0E0,0E0,0E0,0E0,0E0,0E0,0E0,0E0,0E0,0E0,0E0,0E0,0E0,0E0,0E0,0E0],"parents":[2147483647,0,0,1,1,2,2,3,3,4,4,5,5,6,6,7,7,8,8,10,10,11,11,13,13,14,14,15,15,16,16,17,17,18,18,19,19,20,20,22,22,25,25,26,26,27,27,28,28,29,29,30,30,31,31,32,32,34,34,35,35,37,37,38,38,44,44],"right_children":[2,4,6,8,10,12,14,16,18,-1,20,22,-1,24,26,28,30,32,34,36,38,-1,40,-1,-1,42,44,46,48,50,52,54,56,-1,58,60,-1,62,64,-1,-1,-1,-1,-1,66,-1,-1,-1,-1,-1,-1,-1,-1,-1,-1,-1,-1,-1,-1,-1,-1,-1,-1,-1,-1,-1,-1],"split_conditions":[5.6111164E-2,2.7550172E-2,3.6668772E-1,5.290894E-2,1.6750046E0,1.2122281E-1,9.226128E-1,8.754617E-2,3.2831848E-2,-1.2396377E-1,3.631378E-2,3.182903E-1,-4.9327213E-2,-2.1067537E-1,1.3689914E0,8.032598E-2,4.2820137E-2,2.831116E-2,1.0206649E-1,3.7198834E-2,4.0583882E-2,-1.0344789E-1,7.746493E-2,-3.351369E-1,-6.339329E-2,1.04204826E-1,5.0089127E-1,2.0229302E-2,5.6111164E-2,3.2587528E-1,4.8206985E-2,-1.4312956E-1,5.2419506E-2,5.5662353E-2,5.0076857E-2,6.354417E-2,2.116955E-1,2.7662257E-2,4.1440822E-2,-2.2441669E-1,-6.355604E-2,-8.791014E-2,-2.4045718E-1,-1.5877861E-1,1.6593914E-1,-5.7043523E-2,5.9292037E-2,1.4762145E-1,1.9041054E-1,-1.2433078E-1,1.1581578E-1,1.0379114E-2,-1.5737575E-1,9.242497E-2,-1.06810324E-1,1.2400037E-1,-9.36563E-2,-1.6517933E-1,-3.0387511E-2,-9.9980175E-2,1.5128943E-1,1.199499E-1,-1.4837615E-1,-6.9993064E-2,1.2529753E-1,-1.17019676E-1,1.0130916E-1],"split_indices":[1224,2149,7445,682,3324,5299,757,4504,1224,0,1224,5343,0,10001,4556,7540,3667,1224,6215,5593,340,0,3216,0,0,84,1601,1990,1224,3324,8034,10001,5554,0,1224,6801,0,1779,1990,0,0,0,0,0,4382,0,0,0,0,0,0,0,0,0,0,0,0,0,0,0,0,0,0,0,0,0,0],"split_type":[0,0,0,0,0,0,0,0,0,0,0,0,0,0,0,0,0,0,0,0,0,0,0,0,0,0,0,0,0,0,0,0,0,0,0,0,0,0,0,0,0,0,0,0,0,0,0,0,0,0,0,0,0,0,0,0,0,0,0,0,0,0,0,0,0,0,0],"sum_hessian":[1.1509398E4,9.833453E3,1.6759447E3,8.716304E3,1.1171499E3,1.9092579E1,1.6568522E3,8.227388E3,4.8891623E2,7.3359726E1,1.0437902E3,1.801653E1,1.0760505E0,8.25512E0,1.648597E3,7.8114316E3,4.159557E2,4.7624194E2,1.267429E1,7.337362E1,9.7041656E2,3.7614467E0,1.4255082E1,6.4154396E0,1.8396804E0,1.1604325E1,1.6369927E3,7.596212E3,2.1521996E2,4.0351575E2,1.2439929E1,1.5180649E1,4.610613E2,1.4783624E0,1.1195928E1,6.640484E1,6.9687786E0,9.2057074E2,4.9845787E1,1.3170552E1,1.0845296E0,1.7667545E0,9.837571E0,1.819766E1,1.618795E3,6.9257925E3,6.704193E2,1.9794609E2,1.7273857E1,1.0590731E1,3.9292502E2,1.0878624E0,1.1352067E1,2.3214586E0,1.285919E1,4.510745E2,9.986798E0,1.0118945E1,1.0769823E0,6.1155495E1,5.2493467E0,9.120533E2,8.517451E0,3.7108063E1,1.2737726E1,2.2523397E1,1.5962716E3],"tree_param":{"num_deleted":"0","num_feature":"10007","num_nodes":"67","size_leaf_vector":"0"}},{"base_weights":[9.354558E-3,-1.1636605E0,1.3489217E-1,-1.175093E0,7.933044E-1,2.2256151E-1,-1.291672E0,-1.1843024E0,8.030886E-1,-6.7971006E-2,1.2286919E-1,2.9219446E-1,-1.2535629E0,-1.3048576E0,1.0712043E0,1.4592543E-1,-1.1884294E0,1.312084E-1,-6.578874E-2,3.672566E-1,-1.0969121E0,-1.3038471E0,5.834015E-1,1.0448283E-1,-1.3147544E0,2.679785E-2,1.3010006E-1,-1.1920301E0,1.24008074E-1,4.3891308E-1,-1.1140527E0,1.3568951E0,-1.154668E0,-1.3477633E0,8.4641963E-1,-8.798902E-2,1.20500885E-1,-1.3223575E0,1.2947369E-1,-1.1957633E-1,1.1329132E-1,5.0192323E-2,-1.3201147E-1,1.6425234E-1,-1.2226104E-1,-4.1653927E-2,1.6497752E-1,-1.2244221E-1,7.4573636E-2,1.0824446E-1,-1.3696627E-1,-3.0413851E-2,1.0482939E-1,-5.152396E-2,8.700372E-2,-1.3274644E-1,6.63898E-2],"categories":[],"categories_nodes":[],"categories_segments":[],"categories_sizes":[],"default_left":[0,1,1,1,0,1,1,0,0,0,0,1,1,0,1,0,1,0,0,1,0,1,1,0,1,0,0,1,0,1,0,0,1,0,0,1,0,1,0,0,0,0,0,0,0,0,0,0,0,0,0,0,0,0,0,0,0],"id":11,"left_children":[1,3,5,7,9,11,13,15,17,-1,-1,19,21,23,25,-1,27,-1,-1,29,31,33,35,-1,37,-1,-1,39,-1,41,43,45,47,49,51,53,-1,55,-1,-1,-1,-1,-1,-1,-1,-1,-1,-1,-1,-1,-1,-1,-1,-1,-1,-1,-1],"loss_changes":[1.654375E3,2.5231812E1,1.2695072E3,2.0630005E1,5.263662E0,9.8318317E2,1.9708435E1,1.3468872E1,5.0285807E0,0E0,0E0,9.5256696E2,4.0565063E1,1.4974976E1,3.5470867E-1,0E0,1.0873779E1,0E0,0E0,9.20172E2,6.794928E1,4.0778503E1,5.186087E0,0E0,1.32769165E1,0E0,0E0,1.0670776E1,0E0,9.1676086E2,1.21728546E2,6.520647E0,6.164856E1,2.3395142E1,2.4128332E0,3.225018E0,0E0,6.781555E0,0E0,0E0,0E0,0E0,0E0,0E0,0E0,0E0,0E0,0E0,0E0,0E0,0E0,0E0,0E0,0E0,0E0,0E0,0E0],"parents":[2147483647,0,0,1,1,2,2,3,3,4,4,5,5,6,6,7,7,8,8,11,11,12,12,13,13,14,14,16,16,19,19,20,20,21,21,22,22,24,24,27,27,29,29,30,30,31,31,32,32,33,33,34,34,35,35,37,37],"right_children":[2,4,6,8,10,12,14,16,18,-1,-1,20,22,24,26,-1,28,-1,-1,30,32,34,36,-1,38,-1,-1,40,-1,42,44,46,48,50,52,54,-1,56,-1,-1,-1,-1,-1,-1,-1,-1,-1,-1,-1,-1,-1,-1,-1,-1,-1,-1,-1],"split_conditions":[9.193195E-1,7.394406E-2,6.2438664E-3,8.230689E-2,6.142475E-2,7.817178E-3,7.685998E-2,9.749841E-2,1.3582651E-1,-6.7971006E-2,1.2286919E-1,4.84752E-2,3.6718715E-2,4.1255918E-1,6.5281466E-2,1.4592543E-1,1.2590058E-1,1.312084E-1,-6.578874E-2,1.8921865E-2,1.7820239E-1,1.209354E-1,4.1000605E-2,1.0448283E-1,1.5506805E-1,2.679785E-2,1.3010006E-1,1.4566578E-1,1.24008074E-1,4.7060225E-2,2.0778231E-1,7.637421E-2,2.7677095E-2,9.510118E-2,1.03112005E-1,2.2347884E-2,1.20500885E-1,9.043558E-2,1.2947369E-1,-1.1957633E-1,1.1329132E-1,5.0192323E-2,-1.3201147E-1,1.6425234E-1,-1.2226104E-1,-4.1653927E-2,1.6497752E-1,-1.2244221E-1,7.4573636E-2,1.0824446E-1,-1.3696627E-1,-3.0413851E-2,1.0482939E-1,-5.152396E-2,8.700372E-2,-1.3274644E-1,6.63898E-2],"split_indices":[9908,1299,1779,2647,347,9325,638,5940,12,0,0,2600,5843,5173,9932,0,782,0,0,4576,7959,2708,5186,0,2716,0,0,7006,0,1184,2658,9038,682,4848,4980,2972,0,3110,0,0,0,0,0,0,0,0,0,0,0,0,0,0,0,0,0,0,0],"split_type":[0,0,0,0,0,0,0,0,0,0,0,0,0,0,0,0,0,0,0,0,0,0,0,0,0,0,0,0,0,0,0,0,0,0,0,0,0,0,0,0,0,0,0,0,0,0,0,0,0,0,0,0,0,0,0,0,0],"sum_hessian":[1.1232507E4,1.0851034E3,1.0147403E4,1.0791982E3,5.905169E0,9.560696E3,5.867076E2,1.0745968E3,4.6014094E0,1.2191954E0,4.6859736E0,9.130773E3,4.299222E2,5.83897E2,2.810569E0,1.1253972E0,1.0734714E3,3.4880915E0,1.1133178E0,8.663373E3,4.6740088E2,4.1874976E2,1.1172436E1,2.0104187E0,5.818866E2,1.1070749E0,1.7034942E0,1.0723905E3,1.0808746E0,8.264302E3,3.990714E2,1.023106E1,4.571698E2,4.1073428E2,8.015469E0,5.783835E0,5.3886003E0,5.8068787E2,1.1986865E0,1.0711562E3,1.2342246E0,7.9791934E3,2.8510815E2,1.4585114E1,3.844863E2,1.3903081E0,8.840753E0,4.4132666E2,1.5843154E1,3.2357123E0,4.0749857E2,1.1208348E0,6.8946333E0,4.3196077E0,1.4642274E0,5.7952954E2,1.1583276E0],"tree_param":{"num_deleted":"0","num_feature":"10007","num_nodes":"57","size_leaf_vector":"0"}},{"base_weights":[4.0683565E-3,-1.1318319E0,1.1699604E-1,-1.1438968E0,9.856888E-1,-1.2212787E0,2.0809476E-1,-1.1507363E0,9.846392E-2,1.1392784E-1,1.0036588E-2,-1.22260235E-1,-1.9711671E-2,-1.0698088E0,2.9005182E-1,1.3224663E-1,-1.1557454E0,-1.163108E0,1.6275085E0,3.7880874E-1,-8.269516E-1,1.37538E-1,-1.1601974E0,-1.2158846E0,1.7478196E-1,-8.325554E-2,1.8244861E-1,4.7980833E-1,-7.0480996E-1,-9.9584913E-1,1.5181743E0,1.3733272E-1,-1.1645543E-1,-1.2552679E-1,1.8781416E-1,-1.4163552E-1,5.419401E-2,-1.0375466E-1,9.57196E-2,-1.1567161E-1,9.155638E-2,1.5815495E-1,-3.2453477E-2],"categories":[],"categories_nodes":[],"categories_segments":[],"categories_sizes":[],"default_left":[0,1,0,1,1,1,0,0,0,0,0,0,0,1,1,0,0,1,0,1,1,0,0,1,0,0,0,0,1,1,0,0,0,0,0,0,0,0,0,0,0,0,0],"id":12,"left_children":[1,3,5,7,9,11,13,15,-1,-1,-1,-1,-1,17,19,-1,21,23,25,27,29,-1,31,33,-1,-1,-1,35,37,39,41,-1,-1,-1,-1,-1,-1,-1,-1,-1,-1,-1,-1],"loss_changes":[1.4159474E3,2.6628418E1,1.2243071E3,1.5588989E1,7.2764206E-1,6.265869E-1,9.849246E2,1.3796143E1,0E0,0E0,0E0,0E0,0E0,1.4453473E2,8.7626624E2,0E0,1.2737915E1,8.638165E1,1.0903809E1,8.962184E2,2.5924152E2,0E0,1.250061E1,6.8068726E1,0E0,0E0,0E0,8.8298584E2,3.8716476E2,1.8787982E2,5.6646423E0,0E0,0E0,0E0,0E0,0E0,0E0,0E0,0E0,0E0,0E0,0E0,0E0],"parents":[2147483647,0,0,1,1,2,2,3,3,4,4,5,5,6,6,7,7,13,13,14,14,16,16,17,17,18,18,19,19,20,20,22,22,23,23,27,27,28,28,29,29,30,30],"right_children":[2,4,6,8,10,12,14,16,-1,-1,-1,-1,-1,18,20,-1,22,24,26,28,30,-1,32,34,-1,-1,-1,36,38,40,42,-1,-1,-1,-1,-1,-1,-1,-1,-1,-1,-1,-1],"split_conditions":[9.193195E-1,7.394406E-2,1.6750046E0,1.17573634E-1,4.6125382E-2,2.0616654E-2,2.6584584E-2,2.5770511E-2,9.846392E-2,1.1392784E-1,1.0036588E-2,-1.22260235E-1,-1.9711671E-2,7.394784E-2,4.2434487E-2,1.3224663E-1,5.830843E-1,1.205687E-1,1.0978135E-1,3.641611E-2,6.858388E-2,1.37538E-1,1.167048E-1,5.0989475E-2,1.7478196E-1,-8.325554E-2,1.8244861E-1,1.6072038E0,2.8176295E-2,4.2246908E-2,-1.2927401E-1,1.3733272E-1,-1.1645543E-1,-1.2552679E-1,1.8781416E-1,-1.4163552E-1,5.419401E-2,-1.0375466E-1,9.57196E-2,-1.1567161E-1,9.155638E-2,1.5815495E-1,-3.2453477E-2],"split_indices":[9908,1299,3324,3994,8046,3671,1224,9429,0,0,0,0,0,7006,8953,0,1455,4633,3216,340,4659,0,4193,2033,0,0,0,5167,1990,2647,10001,0,0,0,0,0,0,0,0,0,0,0,0],"split_type":[0,0,0,0,0,0,0,0,0,0,0,0,0,0,0,0,0,0,0,0,0,0,0,0,0,0,0,0,0,0,0,0,0,0,0,0,0,0,0,0,0,0,0],"sum_hessian":[1.1036377E4,9.9716986E2,1.0039207E4,9.919777E2,5.1921515E0,6.3904126E2,9.400165E3,9.8925836E2,2.719354E0,4.1801167E0,1.0120348E0,6.380229E2,1.0184228E0,5.658095E2,8.834356E3,1.4679257E0,9.877904E2,5.474425E2,1.8367031E1,8.1846646E3,6.496913E2,1.1936822E0,9.8659674E2,5.3826575E2,9.176717E0,1.122419E0,1.7244612E1,7.4873564E3,6.973081E2,6.065803E2,4.311096E1,1.1542915E0,9.8544244E2,5.320872E2,6.178552E0,2.368634E2,7.250493E3,5.813054E2,1.160027E2,5.598569E2,4.6723454E1,4.181458E1,1.2963796E0],"tree_param":{"num_deleted":"0","num_feature":"10007","num_nodes":"43","size_leaf_vector":"0"}},{"base_weights":[6.0308613E-3,-1.1076652E0,1.11075126E-1,-1.1246986E0,4.4393337E-1,-1.1962415E0,1.9463606E-1,-1.1319156E0,9.2801845E-1,1.24243736E-1,-7.7731496E-1,-1.1976478E-1,-1.8874723E-2,-6.0929316E-1,3.026442E-1,1.3499118E-1,-1.1364974E0,2.8465858E-2,1.0629218E-1,-8.759807E-2,-2.0022122E-2,1.2815953E0,-7.929168E-1,3.704865E-1,-1.0493381E0,-1.1409307E0,1.1656773E-1,-1.3888781E-1,1.3925754E0,-9.688552E-1,1.543863E0,4.293392E-1,-1.2855233E0,2.464858E-1,-1.2096627E0,-1.1448995E-1,1.0949566E-1,-1.325062E-1,1.4735296E-1,-1.0235373E-1,1.6242528E-1,-9.626374E-2,1.628001E-1,-1.2805295E-1,4.8374232E-2,-1.5191464E-1,3.4920964E-2,-1.399234E-1,5.5992108E-2,-1.2938583E-1,1.17769234E-1],"categories":[],"categories_nodes":[],"categories_segments":[],"categories_sizes":[],"default_left":[0,1,0,1,0,1,0,0,0,0,1,0,0,0,1,0,1,0,0,0,0,0,1,1,0,1,0,0,0,1,0,0,1,0,1,0,0,0,0,0,0,0,0,0,0,0,0,0,0,0,0],"id":13,"left_children":[1,3,5,7,9,11,13,15,17,-1,19,-1,-1,21,23,-1,25,-1,-1,-1,-1,27,29,31,33,35,-1,-1,37,39,41,43,45,47,49,-1,-1,-1,-1,-1,-1,-1,-1,-1,-1,-1,-1,-1,-1,-1,-1],"loss_changes":[1.2538069E3,2.4913208E1,1.0700975E3,1.4590576E1,1.1446712E1,6.077881E-1,7.995613E2,1.1896362E1,2.304101E-2,0E0,1.0157776E-1,0E0,0E0,3.7971628E2,7.4484186E2,0E0,1.0618652E1,0E0,0E0,0E0,0E0,3.0659271E1,4.1047302E2,7.5386084E2,8.092316E1,9.318726E0,0E0,0E0,2.2535156E1,1.3292737E2,1.6337646E1,6.950154E2,1.0193405E2,2.3252487E1,7.0975494E1,0E0,0E0,0E0,0E0,0E0,0E0,0E0,0E0,0E0,0E0,0E0,0E0,0E0,0E0,0E0,0E0],"parents":[2147483647,0,0,1,1,2,2,3,3,4,4,5,5,6,6,7,7,8,8,10,10,13,13,14,14,16,16,21,21,22,22,23,23,24,24,25,25,28,28,29,29,30,30,31,31,32,32,33,33,34,34],"right_children":[2,4,6,8,10,12,14,16,18,-1,20,-1,-1,22,24,-1,26,-1,-1,-1,-1,28,30,32,34,36,-1,-1,38,40,42,44,46,48,50,-1,-1,-1,-1,-1,-1,-1,-1,-1,-1,-1,-1,-1,-1,-1,-1],"split_conditions":[9.193195E-1,4.1262068E-2,1.6750046E0,1.0007853E-1,3.4859493E-1,1.7470794E-2,3.4975875E-2,9.749841E-2,5.3806018E-2,1.24243736E-1,6.407202E-2,-1.1976478E-1,-1.8874723E-2,-1.7430456E-1,5.3751424E-2,1.3499118E-1,6.477025E-2,2.8465858E-2,1.0629218E-1,-8.759807E-2,-2.0022122E-2,1.2583984E-1,4.2411383E-2,4.9489632E-2,2.124092E-1,2.0852987E-1,1.1656773E-1,-1.3888781E-1,1.0385286E-1,3.937912E-2,4.9503047E-2,1.6072038E0,1.7661002E-2,2.00001E0,7.7718E-2,-1.1448995E-1,1.0949566E-1,-1.325062E-1,1.4735296E-1,-1.0235373E-1,1.6242528E-1,-9.626374E-2,1.628001E-1,-1.2805295E-1,4.8374232E-2,-1.5191464E-1,3.4920964E-2,-1.399234E-1,5.5992108E-2,-1.2938583E-1,1.17769234E-1],"split_indices":[9908,2845,3324,9799,5934,9408,1222,5940,1222,0,168,0,0,10001,2600,0,8434,0,0,0,0,5552,4034,1184,3216,5476,0,0,8659,9404,8953,5167,3216,9410,4504,0,0,0,0,0,0,0,0,0,0,0,0,0,0,0,0],"split_type":[0,0,0,0,0,0,0,0,0,0,0,0,0,0,0,0,0,0,0,0,0,0,0,0,0,0,0,0,0,0,0,0,0,0,0,0,0,0,0,0,0,0,0,0,0,0,0,0,0,0,0],"sum_hessian":[1.0715402E4,9.22747E2,9.792655E3,9.129992E2,9.747796E0,5.875216E2,9.205134E3,9.1024756E2,2.751653E0,5.8835387E0,3.8642573E0,5.865142E2,1.0073763E0,1.089689E3,8.1154443E3,1.1363041E0,9.0911127E2,1.0160689E0,1.735584E0,2.8577504E0,1.0065069E0,9.592359E1,9.937653E2,7.7283623E3,3.870822E2,9.078674E2,1.2438589E0,3.3679175E0,9.255567E1,9.247271E2,6.9038216E1,7.463846E3,2.645159E2,4.255926E1,3.4452295E2,9.0674585E2,1.1215788E0,2.2327871E0,9.032288E1,9.062225E2,1.8504652E1,1.9030961E0,6.7135124E1,2.2946024E2,7.234386E3,2.3150215E2,3.3013752E1,6.2546225E0,3.6304638E1,3.332289E2,1.1294055E1],"tree_param":{"num_deleted":"0","num_feature":"10007","num_nodes":"51","size_leaf_vector":"0"}},{"base_weights":[7.892007E-3,-1.076006E0,1.0471561E-1,-1.0894892E0,1.0373931E0,-5.797098E-2,7.0769566E-1,-1.0964994E0,1.245343E-1,1.330584E-2,1.2504447E-1,-1.6571882E-1,9.6222764E-1,-1.2167566E0,8.213423E-1,-1.1047181E0,8.655807E-1,-7.545329E-2,-1.1409819E0,-1.2993116E0,1.0006274E0,1.1819386E0,-1.3396628E0,8.7024677E-1,-1.374982E0,-1.1098812E0,1.4359015E-1,1.0846677E-1,1.7982064E-2,-2.574588E-3,-1.329881E0,-1.2466961E0,6.7622507E-1,3.567087E-2,-1.49015E0,1.0230055E0,-1.8739855E0,1.2992263E-1,3.28539E-2,-1.3860471E0,9.515124E-2,-1.8998839E-1,9.047718E-1,-2.3300648E-2,-1.3991E0,1.2693611E-1,-1.11545555E-1,-6.6834795E-3,1.2596065E-1,-1.4548124E-1,-4.2134363E-2,-1.3282138E-1,-1.4171888E-3,8.9396894E-2,-9.268891E-2,-3.1432226E-2,-1.5884708E-1,-1.5251988E-1,1.0462826E-1,-4.2296997E-3,-2.2519203E-1,-1.422589E-1,7.656454E-2,-1.1840051E-1,9.481572E-2,-3.503602E-2,-1.4216354E-1],"categories":[],"categories_nodes":[],"categories_segments":[],"categories_sizes":[],"default_left":[0,1,1,1,0,1,0,1,0,0,0,1,0,0,1,1,0,1,1,0,1,1,1,0,0,0,0,0,0,1,1,1,1,0,0,0,0,0,0,1,0,0,0,0,0,0,0,0,0,0,0,0,0,0,0,0,0,0,0,0,0,0,0,0,0,0,0],"id":14,"left_children":[1,3,5,7,9,11,13,15,-1,-1,-1,17,19,21,23,25,27,29,31,33,35,37,39,41,43,45,-1,-1,-1,47,49,51,53,-1,55,57,59,-1,-1,61,-1,-1,63,-1,65,-1,-1,-1,-1,-1,-1,-1,-1,-1,-1,-1,-1,-1,-1,-1,-1,-1,-1,-1,-1,-1,-1],"loss_changes":[1.1021825E3,2.567102E1,9.4579047E2,1.5380432E1,9.8422146E-1,8.3486017E2,4.4903564E2,1.4731201E1,0E0,0E0,0E0,6.046019E2,6.430548E1,3.5378906E1,2.0902734E2,1.27578125E1,4.2453337E-1,5.748598E2,1.12614075E2,4.4971886E0,4.784546E1,1.8558884E-1,1.29574585E1,1.8280127E2,8.45459E-1,1.2688477E1,0E0,0E0,0E0,4.8217596E2,3.8575623E1,5.526007E1,1.2220313E1,0E0,8.238144E-1,4.365558E1,3.967085E0,0E0,0E0,9.561111E0,0E0,0E0,1.7065637E2,0E0,4.8162842E-1,0E0,0E0,0E0,0E0,0E0,0E0,0E0,0E0,0E0,0E0,0E0,0E0,0E0,0E0,0E0,0E0,0E0,0E0,0E0,0E0,0E0,0E0],"parents":[2147483647,0,0,1,1,2,2,3,3,4,4,5,5,6,6,7,7,11,11,12,12,13,13,14,14,15,15,16,16,17,17,18,18,19,19,20,20,21,21,22,22,23,23,24,24,25,25,29,29,30,30,31,31,32,32,34,34,35,35,36,36,39,39,42,42,44,44],"right_children":[2,4,6,8,10,12,14,16,-1,-1,-1,18,20,22,24,26,28,30,32,34,36,38,40,42,44,46,-1,-1,-1,48,50,52,54,-1,56,58,60,-1,-1,62,-1,-1,64,-1,66,-1,-1,-1,-1,-1,-1,-1,-1,-1,-1,-1,-1,-1,-1,-1,-1,-1,-1,-1,-1,-1,-1],"split_conditions":[9.193195E-1,3.461913E-2,5.1757976E-2,4.1807014E-2,1.2714878E-1,2.9677302E-2,3.631378E-2,4.0759895E-2,1.245343E-1,1.330584E-2,1.2504447E-1,1.2498643E-2,1.9966105E-1,6.3192345E-2,6.34008E-2,5.7718813E-2,1.3160677E-1,6.929654E-3,2.7336977E-2,9.8520406E-2,4.056671E-2,3.5085503E-2,2.6228356E-1,1.2654877E0,7.024847E-2,2.5770511E-2,1.4359015E-1,1.0846677E-1,1.7982064E-2,6.653352E-2,2.3188401E-2,1.7444137E-2,3.7580445E-2,3.567087E-2,5.4807074E-2,3.5061204E-1,1.8255427E-1,1.2992263E-1,3.28539E-2,8.706771E-2,9.515124E-2,-1.8998839E-1,2.00001E0,-2.3300648E-2,1.8487465E-1,1.2693611E-1,-1.11545555E-1,-6.6834795E-3,1.2596065E-1,-1.4548124E-1,-4.2134363E-2,-1.3282138E-1,-1.4171888E-3,8.9396894E-2,-9.268891E-2,-3.1432226E-2,-1.5884708E-1,-1.5251988E-1,1.0462826E-1,-4.2296997E-3,-2.2519203E-1,-1.422589E-1,7.656454E-2,-1.1840051E-1,9.481572E-2,-3.503602E-2,-1.4216354E-1],"split_indices":[9908,3970,347,3242,3767,5934,1224,4633,0,0,0,4211,6432,350,5552,3251,4659,5262,4851,757,9904,9220,804,6366,8953,9429,0,0,0,6347,3216,9834,8631,0,1629,9411,9420,0,0,5697,0,0,5541,0,83,0,0,0,0,0,0,0,0,0,0,0,0,0,0,0,0,0,0,0,0,0,0],"split_type":[0,0,0,0,0,0,0,0,0,0,0,0,0,0,0,0,0,0,0,0,0,0,0,0,0,0,0,0,0,0,0,0,0,0,0,0,0,0,0,0,0,0,0,0,0,0,0,0,0,0,0,0,0,0,0,0,0,0,0,0,0,0,0,0,0,0,0],"sum_hessian":[1.0500212E4,8.6022736E2,9.639984E3,8.552555E2,4.971893E0,7.592421E3,2.0475636E3,8.5322406E2,2.0313766E0,1.2577378E0,3.714155E0,6.867907E3,7.2451355E2,1.13633156E2,1.9339304E3,8.5010016E2,3.1238985E0,6.287083E3,5.80824E2,1.1548218E1,7.1296533E2,5.118646E0,1.0851451E2,1.8923972E3,4.1533276E1,8.489381E2,1.1620644E0,1.9266648E0,1.1972336E0,5.942824E3,3.4425925E2,5.491894E2,3.1634594E1,1.10348E0,1.0444738E1,7.080971E2,4.8682356E0,4.0408735E0,1.0777729E0,1.0674846E2,1.7660475E0,2.2630136E1,1.8697671E3,1.0795211E0,4.0453754E1,1.4544322E0,8.474837E2,5.655822E3,2.8700232E2,3.021147E2,4.214456E1,5.150472E2,3.414225E1,2.8241087E1,3.393507E0,1.1298356E0,9.314902E0,5.8256154E0,7.022715E2,1.0228469E0,3.8453887E0,1.05299034E2,1.4494264E0,3.751127E1,1.8322557E3,1.1990757E0,3.925468E1],"tree_param":{"num_deleted":"0","num_feature":"10007","num_nodes":"67","size_leaf_vector":"0"}},{"base_weights":[-4.1718334E-3,-1.0667225E0,8.462173E-2,-1.0853559E0,1.3169347E-1,1.5600072E-1,-1.2200165E0,-1.0936298E0,7.6988554E-1,-4.1971692E-1,1.2626618E-1,-9.3353003E-1,2.3017018E-1,-1.2850608E0,-4.8285136E-1,-1.0986005E0,1.2781517E-1,1.0819787E-1,-5.7189977E-3,-8.298804E-1,1.17902055E-1,-1.0767704E0,8.77783E-1,2.8767312E-1,-1.1865637E0,-1.1324227E-1,-1.4855471E0,1.2012146E-1,-6.005305E-1,2.0728335E-1,-1.1074227E0,1.1622288E-2,-9.796775E-2,-1.1651871E0,5.6704503E-1,-9.6963115E-2,1.0946542E0,3.4424645E-1,-1.2803817E0,-1.2345237E0,1.15436755E-1,1.04860686E-1,-1.5136437E0,-7.356477E-1,1.0600191E-1,-8.063347E-2,1.0785594E-1,6.878426E-2,-1.11067496E-1,-1.2475933E-1,1.6654158E-2,-1.2047255E-1,8.442967E-2,1.2009952E-1,-8.377489E-2,4.12543E-2,-8.072997E-2,-1.3918824E-1,8.0423616E-2,-1.2758806E-1,1.2244741E-1,-1.5240385E-1,1.5942452E-2,-8.287285E-2,9.911594E-2],"categories":[],"categories_nodes":[],"categories_segments":[],"categories_sizes":[],"default_left":[0,1,1,1,1,0,0,1,0,1,0,1,1,0,0,0,0,0,0,0,0,1,0,1,1,0,0,0,1,0,0,0,0,1,0,0,1,1,1,1,0,0,1,1,0,0,0,0,0,0,0,0,0,0,0,0,0,0,0,0,0,0,0,0,0],"id":15,"left_children":[1,3,5,7,9,11,13,15,17,19,-1,21,23,25,27,29,-1,-1,-1,31,-1,33,35,37,39,-1,41,-1,43,45,47,-1,-1,49,51,-1,53,55,57,59,-1,-1,61,63,-1,-1,-1,-1,-1,-1,-1,-1,-1,-1,-1,-1,-1,-1,-1,-1,-1,-1,-1,-1,-1],"loss_changes":[9.645485E2,1.7749207E1,8.7880786E2,1.2760986E1,8.614076E0,7.231732E2,2.285199E1,1.0522522E1,1.1032591E0,7.18496E0,0E0,1.4893863E2,6.827853E2,1.206543E1,8.90506E0,9.127747E0,0E0,0E0,0E0,1.2645535E0,0E0,7.755347E1,1.8030312E1,7.1465094E2,3.8131134E1,0E0,1.518515E1,0E0,9.589404E0,6.190773E0,5.2442627E0,0E0,0E0,5.5339783E1,1.4612591E1,0E0,8.891636E0,6.115348E2,6.63338E1,3.419281E1,0E0,0E0,3.5349731E0,6.752407E0,0E0,0E0,0E0,0E0,0E0,0E0,0E0,0E0,0E0,0E0,0E0,0E0,0E0,0E0,0E0,0E0,0E0,0E0,0E0,0E0,0E0],"parents":[2147483647,0,0,1,1,2,2,3,3,4,4,5,5,6,6,7,7,8,8,9,9,11,11,12,12,13,13,14,14,15,15,19,19,21,21,22,22,23,23,24,24,26,26,28,28,29,29,30,30,33,33,34,34,36,36,37,37,38,38,39,39,42,42,43,43],"right_children":[2,4,6,8,10,12,14,16,18,20,-1,22,24,26,28,30,-1,-1,-1,32,-1,34,36,38,40,-1,42,-1,44,46,48,-1,-1,50,52,-1,54,56,58,60,-1,-1,62,64,-1,-1,-1,-1,-1,-1,-1,-1,-1,-1,-1,-1,-1,-1,-1,-1,-1,-1,-1,-1,-1],"split_conditions":[9.193195E-1,2.6472708E-2,6.2438664E-3,8.068082E-2,1.8813541E-2,8.5320723E-1,8.358981E-1,1.2564634E-1,1.0542716E-1,3.7762478E-2,1.2626618E-1,2.7336977E-2,1.7292907E-2,1.6750046E0,2.0842674E-1,1.2698112E-1,1.2781517E-1,1.0819787E-1,-5.7189977E-3,5.5769846E-2,1.17902055E-1,3.883051E-2,1.6750046E0,6.195949E-2,6.445906E-2,-1.1324227E-1,1.4639014E-1,1.2012146E-1,5.2348237E-2,1.5632747E-1,2.6704952E-1,1.1622288E-2,-9.796775E-2,1.546523E-2,1.1571726E-1,-9.6963115E-2,3.0772377E-2,3.373174E-2,2.4162263E-2,1.1627012E-1,1.15436755E-1,1.04860686E-1,4.728771E-2,9.043558E-2,1.0600191E-1,-8.063347E-2,1.0785594E-1,6.878426E-2,-1.11067496E-1,-1.2475933E-1,1.6654158E-2,-1.2047255E-1,8.442967E-2,1.2009952E-1,-8.377489E-2,4.12543E-2,-8.072997E-2,-1.3918824E-1,8.0423616E-2,-1.2758806E-1,1.2244741E-1,-1.5240385E-1,1.5942452E-2,-8.287285E-2,9.911594E-2],"split_indices":[9908,5264,1779,2647,7366,4211,8631,782,12,9313,0,4851,9325,3324,3584,5977,0,0,0,7445,0,7366,3324,3741,3659,0,5781,0,5289,340,5097,0,0,2647,347,0,2562,5554,7998,2871,0,0,975,3110,0,0,0,0,0,0,0,0,0,0,0,0,0,0,0,0,0,0,0,0,0],"split_type":[0,0,0,0,0,0,0,0,0,0,0,0,0,0,0,0,0,0,0,0,0,0,0,0,0,0,0,0,0,0,0,0,0,0,0,0,0,0,0,0,0,0,0,0,0,0,0,0,0,0,0,0,0,0,0,0,0,0,0,0,0,0,0,0,0],"sum_hessian":[1.0221387E4,7.8744073E2,9.433945E3,7.7547766E2,1.1963047E1,8.945407E3,4.8853815E2,7.724433E2,3.0344126E0,8.464848E0,3.4982E0,5.69405E2,8.376003E3,4.482438E2,4.0294353E1,7.713635E2,1.0797683E0,1.979325E0,1.0550876E0,7.119279E0,1.3455685E0,5.280517E2,4.135333E1,8.0500605E3,3.25942E2,2.5826505E2,1.8997876E2,2.0304039E0,3.826395E1,5.02519E0,7.663383E2,1.0037605E0,6.1155186E0,5.0137518E2,2.6676542E1,3.9798696E0,3.737346E1,7.770492E3,2.7956857E2,3.1986145E2,6.080535E0,1.6849512E0,1.8829381E2,3.5899807E1,2.3641438E0,2.3573043E0,2.6678855E0,1.0051377E0,7.653332E2,4.7221793E2,2.9157246E1,3.1569407E0,2.3519602E1,3.578281E1,1.5906473E0,7.3360435E3,4.3444852E2,2.6568982E2,1.3878746E1,3.1504398E2,4.8174605E0,1.872197E2,1.074114E0,3.4557137E1,1.3426682E0],"tree_param":{"num_deleted":"0","num_feature":"10007","num_nodes":"65","size_leaf_vector":"0"}},{"base_weights":[-1.894098E-3,-1.0381948E0,8.022435E-2,-1.0712065E0,-4.0039465E-2,-1.1634917E0,1.5171431E-1,-1.0835671E0,7.4187094E-1,-5.748253E-1,1.4704776E0,-1.1650383E-1,-2.0921145E-2,5.170794E-2,9.366519E-1,-1.0890005E0,1.3673282E-1,1.22977994E-1,-6.121419E-2,-8.912905E-1,9.2733884E-1,1.6294913E-1,3.250586E-2,-6.015997E-2,8.548273E-1,-5.889326E-1,9.989287E-1,-1.096851E0,3.5608223E-1,-1.0048294E0,3.876682E-2,2.5614602E-2,1.3119064E-1,-1.252608E-1,1.1097733E0,-3.3443508E-1,8.8411283E-1,-1.1756116E0,1.7230743E-1,1.0263824E0,-1.7271136E0,-1.1010261E-1,9.0487644E-2,-3.8108174E-2,1.2007169E-1,-1.5473971E-2,-1.0547935E-1,-1.9591857E-2,1.0011448E-1,-8.579648E-2,1.24811485E-1,-2.8064832E-1,9.136078E-2,-1.2612744E-1,7.075106E-2,1.05649054E-1,-1.01542726E-1,-2.0685475E-1,5.3504568E-2],"categories":[],"categories_nodes":[],"categories_segments":[],"categories_sizes":[],"default_left":[0,1,0,1,1,1,1,1,0,1,1,0,0,1,0,1,0,0,0,1,1,0,0,1,0,1,1,1,1,0,0,0,0,1,0,0,0,1,0,1,1,0,0,0,0,0,0,0,0,0,0,0,0,0,0,0,0,0,0],"id":16,"left_children":[1,3,5,7,9,11,13,15,17,19,21,-1,-1,23,25,27,-1,-1,-1,29,31,-1,-1,33,35,37,39,41,43,45,-1,-1,-1,47,49,-1,51,53,-1,55,57,-1,-1,-1,-1,-1,-1,-1,-1,-1,-1,-1,-1,-1,-1,-1,-1,-1,-1],"loss_changes":[8.5089386E2,2.4148132E1,8.239304E2,1.6729187E1,2.0670288E1,4.9951172E-1,6.877565E2,1.0893127E1,4.323779E0,9.784578E0,6.9027996E-1,0E0,0E0,6.9839075E2,9.465845E1,8.390869E0,0E0,0E0,0E0,2.723774E0,6.368549E-1,0E0,0E0,5.1983936E2,1.19831116E2,5.5552517E1,7.299475E1,6.8601074E0,3.3000593E0,4.756937E-1,0E0,0E0,0E0,5.147165E2,9.900983E1,0E0,1.0538727E2,6.0656433E0,0E0,5.903119E1,8.723383E0,0E0,0E0,0E0,0E0,0E0,0E0,0E0,0E0,0E0,0E0,0E0,0E0,0E0,0E0,0E0,0E0,0E0,0E0],"parents":[2147483647,0,0,1,1,2,2,3,3,4,4,5,5,6,6,7,7,8,8,9,9,10,10,13,13,14,14,15,15,19,19,20,20,23,23,24,24,25,25,26,26,27,27,28,28,29,29,33,33,34,34,36,36,37,37,39,39,40,40],"right_children":[2,4,6,8,10,12,14,16,18,20,22,-1,-1,24,26,28,-1,-1,-1,30,32,-1,-1,34,36,38,40,42,44,46,-1,-1,-1,48,50,-1,52,54,-1,56,58,-1,-1,-1,-1,-1,-1,-1,-1,-1,-1,-1,-1,-1,-1,-1,-1,-1,-1],"split_conditions":[9.193195E-1,1.18689E-2,1.6750046E0,8.068082E-2,2.317644E-2,5.4000538E-2,2.7076228E-2,5.0221477E-2,1.3582651E-1,2.9390514E-2,3.0385938E-2,-1.1650383E-1,-2.0921145E-2,6.707993E-2,2.4795797E-2,3.530114E-2,1.3673282E-1,1.22977994E-1,-6.121419E-2,1.5782207E-2,3.0384466E-2,1.6294913E-1,3.250586E-2,6.755106E-2,9.226128E-1,3.7198834E-2,9.718667E-2,2.5758859E-2,1.8067759E-2,1.0433744E-1,3.876682E-2,2.5614602E-2,1.3119064E-1,5.290894E-2,4.2838674E-2,-3.3443508E-1,1.3689914E0,4.332898E-2,1.7230743E-1,6.1847296E-2,4.0038887E-2,-1.1010261E-1,9.0487644E-2,-3.8108174E-2,1.2007169E-1,-1.5473971E-2,-1.0547935E-1,-1.9591857E-2,1.0011448E-1,-8.579648E-2,1.24811485E-1,-2.8064832E-1,9.136078E-2,-1.2612744E-1,7.075106E-2,1.05649054E-1,-1.01542726E-1,-2.0685475E-1,5.3504568E-2],"split_indices":[9908,5934,3324,2647,757,3593,2149,782,12,1299,4646,0,0,1224,1224,3854,0,0,0,6100,5960,0,0,6347,757,5593,6908,4119,9038,2357,0,0,0,682,1224,0,4556,7021,0,9441,6386,0,0,0,0,0,0,0,0,0,0,0,0,0,0,0,0,0,0],"split_type":[0,0,0,0,0,0,0,0,0,0,0,0,0,0,0,0,0,0,0,0,0,0,0,0,0,0,0,0,0,0,0,0,0,0,0,0,0,0,0,0,0,0,0,0,0,0,0,0,0,0,0,0,0,0,0,0,0,0,0],"sum_hessian":[9.996846E3,7.331504E2,9.263695E3,7.0960846E2,2.3541899E1,5.0271146E2,8.760983E3,7.052031E2,4.405374E0,1.7843876E1,5.698023E0,5.0167764E2,1.0338174E0,7.7718613E3,9.891221E2,7.041977E2,1.0054424E0,3.3058763E0,1.0994976E0,1.5074706E1,2.769169E0,4.632321E0,1.0657017E0,6.822472E3,9.493891E2,3.8462265E1,9.506598E2,7.006324E2,3.5652616E0,1.4042435E1,1.0322719E0,1.6155618E0,1.1536072E0,6.4636934E3,3.5877872E2,5.791306E0,9.435978E2,3.106974E1,7.3925247E0,9.417985E2,8.861257E0,6.996231E2,1.0092785E0,2.196801E0,1.3684608E0,1.006964E0,1.303547E1,6.0829453E3,3.807481E2,2.3225338E1,3.3555338E2,6.7348924E0,9.368629E2,3.0033735E1,1.036006E0,9.285883E2,1.3210194E1,7.7735596E0,1.0876975E0],"tree_param":{"num_deleted":"0","num_feature":"10007","num_nodes":"59","size_leaf_vector":"0"}},{"base_weights":[5.148954E-3,-7.5301364E-2,1.0438048E0,3.873359E-2,-7.231157E-1,-1.6772585E-1,1.117196E0,-1.1451852E-1,1.1087479E-1,-9.218382E-1,5.657293E-1,1.4408815E-1,-3.419829E-1,-1.1362375E-1,1.1702467E0,1.7584473E-1,-1.062297E0,-1.0137502E0,7.2166204E-1,-9.2761797E-1,8.432423E-1,-7.5377893E-1,5.785435E-1,-4.6907553E-1,1.23746336E-1,-1.3992995E-1,1.1877348E0,2.2747648E-1,-1.1762513E0,-1.1530029E0,1.0290128E0,1.9210482E0,-1.0595571E0,1.0161335E0,-5.9568495E-1,-1.0818515E0,8.7138295E-2,-1.9405064E-1,9.7620803E-1,-9.4789237E-1,1.3405739E-1,-4.5554113E-1,1.0759268E0,-6.9582075E-1,1.2656133E-1,-1.1785257E-1,1.2059289E0,-8.402542E-2,2.9763488E-2,1.110368E-1,-1.3391621E-1,-1.2399037E-1,6.341478E-2,-7.778876E-2,1.2031881E-1,3.775354E-2,1.9931419E-1,-1.1220803E-1,5.3543497E-2,1.5379636E-1,4.5040272E-2,-1.0102469E-1,1.01776935E-1,-1.24100916E-1,8.580291E-2,1.062419E-1,-1.1828673E-1,9.829919E-2,-1.0892083E-1,6.529628E-2,-1.2013098E-1,1.2886482E-1,-2.095264E-2,8.958286E-2,-9.248293E-2,-9.633826E-2,1.22496024E-1],"categories":[],"categories_nodes":[],"categories_segments":[],"categories_sizes":[],"default_left":[1,1,0,0,1,0,0,0,1,1,0,0,0,1,0,1,1,0,1,1,0,1,0,1,0,0,0,0,0,1,0,0,1,0,1,1,0,0,1,0,0,0,1,0,0,0,0,0,0,0,0,0,0,0,0,0,0,0,0,0,0,0,0,0,0,0,0,0,0,0,0,0,0,0,0,0,0],"id":17,"left_children":[1,3,5,7,9,11,13,-1,15,17,19,-1,21,23,25,27,29,31,33,35,37,39,41,43,-1,-1,45,47,49,51,53,55,57,59,61,63,-1,-1,65,67,-1,69,71,73,-1,-1,75,-1,-1,-1,-1,-1,-1,-1,-1,-1,-1,-1,-1,-1,-1,-1,-1,-1,-1,-1,-1,-1,-1,-1,-1,-1,-1,-1,-1,-1,-1],"loss_changes":[8.151381E2,6.688701E2,6.2541687E1,6.577475E2,3.4763232E2,1.1964315E1,4.3316406E1,0E0,5.534225E2,1.7816132E2,7.6069E1,0E0,1.473936E1,1.4142186E1,3.015686E1,4.8044968E2,7.346246E1,1.5163269E2,2.496415E1,8.974041E0,5.8793182E1,1.2045866E1,6.7795415E0,9.959679E0,0E0,0E0,2.8559448E1,4.9661676E2,9.579257E1,5.7572906E1,6.086939E0,1.1901169E0,1.0993201E2,1.456723E1,9.123255E0,9.433649E0,0E0,0E0,2.8689148E1,7.8491955E0,0E0,4.6483216E0,2.609107E0,8.504611E0,0E0,0E0,2.702649E1,0E0,0E0,0E0,0E0,0E0,0E0,0E0,0E0,0E0,0E0,0E0,0E0,0E0,0E0,0E0,0E0,0E0,0E0,0E0,0E0,0E0,0E0,0E0,0E0,0E0,0E0,0E0,0E0,0E0,0E0],"parents":[2147483647,0,0,1,1,2,2,3,3,4,4,5,5,6,6,8,8,9,9,10,10,12,12,13,13,14,14,15,15,16,16,17,17,18,18,19,19,20,20,21,21,22,22,23,23,26,26,27,27,28,28,29,29,30,30,31,31,32,32,33,33,34,34,35,35,38,38,39,39,41,41,42,42,43,43,46,46],"right_children":[2,4,6,8,10,12,14,-1,16,18,20,-1,22,24,26,28,30,32,34,36,38,40,42,44,-1,-1,46,48,50,52,54,56,58,60,62,64,-1,-1,66,68,-1,70,72,74,-1,-1,76,-1,-1,-1,-1,-1,-1,-1,-1,-1,-1,-1,-1,-1,-1,-1,-1,-1,-1,-1,-1,-1,-1,-1,-1,-1,-1,-1,-1,-1,-1],"split_conditions":[2.6461286E-2,2.4253892E-2,2.5733598E-2,1.6750046E0,8.1452485E-3,5.378735E-1,7.247204E-1,-1.1451852E-1,6.223528E-3,3.0367184E-2,7.6073E-2,1.4408815E-1,1.4964774E-1,1.5968371E-2,2.940598E-1,5.5677006E-3,6.718706E-2,5.354567E-1,1.6915705E-2,1.0382491E-1,1.2566093E0,5.239528E-2,1.4411251E-1,1.4435223E-2,1.23746336E-1,-1.3992995E-1,3.5061204E-1,1.3996314E0,4.650058E-1,6.3754454E-2,-5.3828314E-2,3.5098027E-2,1.6668538E-2,8.7719105E-2,6.595766E-2,3.2006655E-2,8.7138295E-2,-1.9405064E-1,2.7737355E-2,4.165702E-1,1.3405739E-1,7.4033365E-2,4.577503E-2,1.5186857E-1,1.2656133E-1,-1.1785257E-1,4.0051582E-1,-8.402542E-2,2.9763488E-2,1.110368E-1,-1.3391621E-1,-1.2399037E-1,6.341478E-2,-7.778876E-2,1.2031881E-1,3.775354E-2,1.9931419E-1,-1.1220803E-1,5.3543497E-2,1.5379636E-1,4.5040272E-2,-1.0102469E-1,1.01776935E-1,-1.24100916E-1,8.580291E-2,1.062419E-1,-1.1828673E-1,9.829919E-2,-1.0892083E-1,6.529628E-2,-1.2013098E-1,1.2886482E-1,-2.095264E-2,8.958286E-2,-9.248293E-2,-9.633826E-2,1.22496024E-1],"split_indices":[5289,5343,1222,3324,1990,7006,4576,0,7235,7366,347,0,347,2314,5326,9410,5934,8372,1222,9254,3505,869,6631,8677,0,0,9411,3741,2000,9581,10000,5574,6300,9650,3921,61,0,0,3741,7526,0,4353,7850,3654,0,0,3324,0,0,0,0,0,0,0,0,0,0,0,0,0,0,0,0,0,0,0,0,0,0,0,0,0,0,0,0,0,0],"split_type":[0,0,0,0,0,0,0,0,0,0,0,0,0,0,0,0,0,0,0,0,0,0,0,0,0,0,0,0,0,0,0,0,0,0,0,0,0,0,0,0,0,0,0,0,0,0,0,0,0,0,0,0,0,0,0,0,0,0,0,0,0,0,0,0,0,0,0,0,0,0,0,0,0,0,0,0,0],"sum_hessian":[9.753161E3,9.052887E3,7.0027454E2,7.698634E3,1.3542527E3,3.9924366E1,6.603502E2,4.4131302E2,7.257321E3,1.1735862E3,1.8066644E2,3.1917617E0,3.6732605E1,2.7239096E1,6.331111E2,6.8773076E3,3.8001334E2,1.111793E3,6.179331E1,2.7945276E1,1.5272116E2,2.5504396E1,1.1228208E1,2.2082357E1,5.1567373E0,3.7456572E0,6.293654E2,6.6251484E3,2.5215915E2,3.646463E2,1.5367056E1,1.6457235E1,1.0953357E3,5.069084E1,1.1102465E1,2.610579E1,1.8394859E0,6.3424597E0,1.4637871E2,2.3842024E1,1.6623728E0,3.6739686E0,7.5542393E0,2.0059246E1,2.0231123E0,4.315598E0,6.2504987E2,4.0780756E2,6.217341E3,1.6383553E1,2.357756E2,3.4802945E2,1.6616833E1,1.0463244E0,1.4320731E1,1.0126804E0,1.5444555E1,1.0543037E3,4.1031944E1,2.5474567E1,2.5216276E1,9.130364E0,1.9721003E0,2.4459291E1,1.6464989E0,1.4124672E2,5.131991E0,1.2197577E0,2.2622265E1,1.5276809E0,2.1462877E0,6.479502E0,1.0747373E0,2.156868E0,1.7902378E1,5.004329E0,6.2004553E2],"tree_param":{"num_deleted":"0","num_feature":"10007","num_nodes":"77","size_leaf_vector":"0"}},{"base_weights":[3.4292152E-3,-1.0135618E0,7.671897E-2,-1.0460443E0,-6.228514E-2,1.3664046E-1,-1.172977E0,-1.0554396E0,9.6631214E-2,-7.1088773E-1,9.1820616E-1,-1.3261915E0,1.8345709E-1,-1.2442007E0,-4.379384E-1,-1.0622307E0,1.1283096E-1,-9.4133615E-1,6.92374E-2,-6.644615E-2,1.2923197E0,-1.3635596E0,9.4397545E-1,2.4023268E-1,-1.0794728E0,-1.091748E-1,-1.4067986E0,1.2165648E-1,-5.9032196E-1,-1.0743152E0,1.6198838E-1,-1.0361784E-1,5.209664E-3,1.4800039E-1,6.2747146E-3,-1.3992184E0,6.2729377E-1,1.0933025E-1,2.293042E-2,2.982917E-1,-1.0068548E0,1.4006416E-1,-1.1521249E0,8.415876E-2,-1.4265419E0,-6.9643694E-1,8.059972E-2,-1.0801643E-1,9.782777E-2,1.7994112E-1,-4.2677004E-2,-1.4208561E-1,7.386058E-2,1.0144973E-1,-5.120447E-2,3.5847295E-2,-9.229367E-2,-1.1468629E-1,7.92944E-2,6.904076E-2,-1.233713E-1,2.1549499E-2,-1.4373969E-1,-7.908687E-2,7.9788595E-2],"categories":[],"categories_nodes":[],"categories_segments":[],"categories_sizes":[],"default_left":[0,1,1,1,1,0,0,1,0,1,0,1,1,0,0,1,0,1,0,0,1,1,0,1,0,0,0,0,1,1,0,0,0,0,0,1,0,0,0,1,1,0,0,0,0,1,0,0,0,0,0,0,0,0,0,0,0,0,0,0,0,0,0,0,0],"id":18,"left_children":[1,3,5,7,9,11,13,15,-1,17,19,21,23,25,27,29,-1,31,-1,-1,33,35,37,39,41,-1,43,-1,45,47,49,-1,-1,-1,-1,51,53,-1,-1,55,57,-1,59,-1,61,63,-1,-1,-1,-1,-1,-1,-1,-1,-1,-1,-1,-1,-1,-1,-1,-1,-1,-1,-1],"loss_changes":[7.164715E2,1.9901245E1,6.7159235E2,1.2832214E1,1.4897282E1,5.86267E2,2.0938293E1,1.0427734E1,0E0,5.1935163E0,6.3972836E0,2.3808899E1,5.9486084E2,7.724243E0,1.0246623E1,9.360046E0,0E0,1.2305326E0,0E0,0E0,1.7314606E0,1.9448883E1,2.7118158E-1,5.749442E2,6.592856E1,0E0,9.071106E0,0E0,5.788698E0,8.440186E0,7.456829E0,0E0,0E0,0E0,0E0,1.295166E1,2.854754E0,0E0,0E0,5.577373E2,8.99321E1,0E0,5.3065033E1,0E0,3.4490967E0,5.333452E0,0E0,0E0,0E0,0E0,0E0,0E0,0E0,0E0,0E0,0E0,0E0,0E0,0E0,0E0,0E0,0E0,0E0,0E0,0E0],"parents":[2147483647,0,0,1,1,2,2,3,3,4,4,5,5,6,6,7,7,9,9,10,10,11,11,12,12,13,13,14,14,15,15,17,17,20,20,21,21,22,22,23,23,24,24,26,26,28,28,29,29,30,30,35,35,36,36,39,39,40,40,42,42,44,44,45,45],"right_children":[2,4,6,8,10,12,14,16,-1,18,20,22,24,26,28,30,-1,32,-1,-1,34,36,38,40,42,-1,44,-1,46,48,50,-1,-1,-1,-1,52,54,-1,-1,56,58,-1,60,-1,62,64,-1,-1,-1,-1,-1,-1,-1,-1,-1,-1,-1,-1,-1,-1,-1,-1,-1,-1,-1],"split_conditions":[9.193195E-1,1.3736763E-2,6.2438664E-3,4.0759895E-2,1.6172757E-2,1.275713E0,8.358981E-1,1.8642336E-1,9.6631214E-2,8.11465E-2,1.1367799E-1,2.876758E-2,3.482393E-2,1.6750046E0,2.8237736E-1,2.1634214E-2,1.1283096E-1,3.3715934E-2,6.92374E-2,-6.644615E-2,3.247621E-2,2.2227833E-2,1.1057153E-1,6.6134416E-2,2.0778231E-1,-1.091748E-1,9.791721E-2,1.2165648E-1,6.6971615E-2,4.3291904E-2,1.2807591E-1,-1.0361784E-1,5.209664E-3,1.4800039E-1,6.2747146E-3,4.048931E-2,8.303849E-2,1.0933025E-1,2.293042E-2,5.3751424E-2,4.264364E-2,1.4006416E-1,2.7664867E-1,8.415876E-2,9.893295E-2,4.077507E-2,8.059972E-2,-1.0801643E-1,9.782777E-2,1.7994112E-1,-4.2677004E-2,-1.4208561E-1,7.386058E-2,1.0144973E-1,-5.120447E-2,3.5847295E-2,-9.229367E-2,-1.1468629E-1,7.92944E-2,6.904076E-2,-1.233713E-1,2.1549499E-2,-1.4373969E-1,-7.908687E-2,7.9788595E-2],"split_indices":[9908,5934,1779,4633,3216,2230,8631,5476,0,2845,6817,1016,4576,3324,3092,7070,0,6522,0,0,6825,831,3733,8953,2658,0,7138,0,7840,8561,4303,0,0,0,0,4508,2802,0,0,2600,4504,0,2084,0,5853,6308,0,0,0,0,0,0,0,0,0,0,0,0,0,0,0,0,0,0,0],"split_type":[0,0,0,0,0,0,0,0,0,0,0,0,0,0,0,0,0,0,0,0,0,0,0,0,0,0,0,0,0,0,0,0,0,0,0,0,0,0,0,0,0,0,0,0,0,0,0,0,0,0,0,0,0,0,0,0,0,0,0,0,0,0,0,0,0],"sum_hessian":[9.610505E3,6.451652E2,8.965339E3,6.2376636E2,2.1398863E1,8.55598E3,4.0935876E2,6.2134094E2,2.4254127E0,1.3044677E1,8.354186E0,2.6448724E2,8.291493E3,3.7256528E2,3.6793488E1,6.199267E2,1.4142787E0,1.1487363E1,1.557314E0,1.4488413E0,6.905345E0,2.6059705E2,3.8901994E0,7.9355566E3,3.559368E2,1.9626277E2,1.763025E2,2.514015E0,3.4279472E1,6.1398834E2,5.938353E0,1.0446971E1,1.0403916E0,5.8141837E0,1.0911611E0,2.563035E2,4.2935634E0,2.7796147E0,1.1105845E0,7.5832725E3,3.5228375E2,9.6098E0,3.46327E2,1.1723082E0,1.751302E2,3.232419E1,1.9552827E0,6.1271606E2,1.2722417E0,1.026692E0,4.911661E0,2.5406737E2,2.2361224E0,3.286292E0,1.0072713E0,7.2277983E3,3.5547418E2,3.2719382E2,2.5089945E1,1.4368827E1,3.319582E2,1.026323E0,1.7410388E2,3.0845686E1,1.478502E0],"tree_param":{"num_deleted":"0","num_feature":"10007","num_nodes":"65","size_leaf_vector":"0"}},{"base_weights":[5.3260773E-3,-7.23711E-1,1.0188861E-1,-8.750245E-1,1.355931E0,-1.8966116E-3,9.3195397E-1,1.2878152E0,-9.8905694E-1,-1.105024E-1,1.5134996E0,7.265114E-2,-1.171564E0,-1.4241908E-1,9.687489E-1,1.3396605E0,-3.9406892E-2,-1.0565948E0,1.5134138E-1,-6.371557E-2,1.5562263E0,-7.2452986E-1,1.7413113E-1,-1.207476E0,8.964962E-1,-1.2927338E0,1.0005702E0,1.3698348E0,2.6127001E-2,-1.0937921E0,1.6398795E-1,1.5252314E-2,1.5748129E0,-8.816037E-1,7.6518023E-1,2.401647E-1,-1.0969906E0,1.3895418E-1,-1.2261672E0,-8.202174E-2,1.2651553E0,-1.3597088E0,-2.7566595E-2,-1.2822733E0,1.0260835E0,4.036973E-2,1.3871732E-1,-1.1284783E-1,1.6830319E-1,3.4097575E-2,1.5900342E-1,-9.591024E-2,1.2630786E-1,-1.7541519E-1,1.01673715E-1,2.807394E-2,-1.6311799E-1,-1.2088745E-1,2.2797655E-2,1.2778549E-1,-1.24584176E-1,3.3527162E-2,1.3653004E-1,-4.427417E-2,-1.4262813E-1,-1.441211E-1,9.806446E-3,1.053886E-1,-1.0090374E-1],"categories":[],"categories_nodes":[],"categories_segments":[],"categories_sizes":[],"default_left":[0,1,1,0,0,1,0,1,1,0,0,0,1,0,0,1,0,1,0,0,0,1,1,0,0,1,0,0,0,1,0,0,0,1,0,1,1,0,0,0,0,0,0,1,1,0,0,0,0,0,0,0,0,0,0,0,0,0,0,0,0,0,0,0,0,0,0,0,0],"id":19,"left_children":[1,3,5,7,9,11,13,15,17,-1,19,21,23,-1,25,27,-1,29,-1,-1,31,33,35,37,39,41,43,45,-1,47,-1,-1,49,51,53,55,57,-1,59,-1,61,63,-1,65,67,-1,-1,-1,-1,-1,-1,-1,-1,-1,-1,-1,-1,-1,-1,-1,-1,-1,-1,-1,-1,-1,-1,-1,-1],"loss_changes":[6.615841E2,3.4707202E2,7.14913E2,2.5413025E2,3.0733063E1,6.433575E2,8.133618E1,5.0430984E0,1.662926E2,0E0,7.5025024E0,5.612531E2,3.391461E1,0E0,6.66861E1,1.2840576E0,0E0,9.7022705E1,0E0,0E0,1.5799866E0,1.8399945E2,5.1679126E2,2.2817078E1,6.176412E0,5.137825E-1,5.3539307E1,2.583084E-1,0E0,9.2159546E1,0E0,0E0,7.489624E-1,1.1908679E2,4.9482025E1,4.446973E2,4.5352448E1,0E0,2.2893127E1,0E0,2.0133114E-1,1.001358E-1,0E0,2.4130516E0,5.1267883E1,0E0,0E0,0E0,0E0,0E0,0E0,0E0,0E0,0E0,0E0,0E0,0E0,0E0,0E0,0E0,0E0,0E0,0E0,0E0,0E0,0E0,0E0,0E0,0E0],"parents":[2147483647,0,0,1,1,2,2,3,3,4,4,5,5,6,6,7,7,8,8,10,10,11,11,12,12,14,14,15,15,17,17,20,20,21,21,22,22,23,23,24,24,25,25,26,26,27,27,29,29,32,32,33,33,34,34,35,35,36,36,38,38,40,40,41,41,43,43,44,44],"right_children":[2,4,6,8,10,12,14,16,18,-1,20,22,24,-1,26,28,-1,30,-1,-1,32,34,36,38,40,42,44,46,-1,48,-1,-1,50,52,54,56,58,-1,60,-1,62,64,-1,66,68,-1,-1,-1,-1,-1,-1,-1,-1,-1,-1,-1,-1,-1,-1,-1,-1,-1,-1,-1,-1,-1,-1,-1,-1],"split_conditions":[3.631378E-2,2.567901E-2,1.3207745E-2,-1.9162399E-1,5.852519E-2,6.0466575E-3,3.541476E-1,2.6195952E-1,6.392785E-2,-1.105024E-1,1.3221978E-1,2.2495067E-1,1.2513461E-2,-1.4241908E-1,1.4003547E-1,6.453173E-2,-3.9406892E-2,8.962121E-2,1.5134138E-1,-6.371557E-2,7.9158045E-2,5.162717E-2,5.091261E-3,5.2441657E-1,1.3117412E-1,5.3032722E-2,9.000758E-2,6.702212E-2,2.6127001E-2,6.7747764E-2,1.6398795E-1,1.5252314E-2,6.237183E-2,3.1024028E-2,9.33481E-2,2.1167906E-2,3.5645448E-2,1.3895418E-1,3.4962896E-1,-8.202174E-2,8.830967E-2,5.9493855E-2,-2.7566595E-2,4.634927E-2,7.738595E-2,4.036973E-2,1.3871732E-1,-1.1284783E-1,1.6830319E-1,3.4097575E-2,1.5900342E-1,-9.591024E-2,1.2630786E-1,-1.7541519E-1,1.01673715E-1,2.807394E-2,-1.6311799E-1,-1.2088745E-1,2.2797655E-2,1.2778549E-1,-1.24584176E-1,3.3527162E-2,1.3653004E-1,-4.427417E-2,-1.4262813E-1,-1.441211E-1,9.806446E-3,1.053886E-1,-1.0090374E-1],"split_indices":[1224,5751,7366,10001,9351,6817,578,4135,7526,0,5767,340,342,0,6432,12,0,4633,0,0,2680,1990,7235,5007,340,9018,948,61,0,9529,0,0,5434,7070,2403,9557,9581,0,8804,0,1222,1389,0,7857,4382,0,0,0,0,0,0,0,0,0,0,0,0,0,0,0,0,0,0,0,0,0,0,0,0],"split_type":[0,0,0,0,0,0,0,0,0,0,0,0,0,0,0,0,0,0,0,0,0,0,0,0,0,0,0,0,0,0,0,0,0,0,0,0,0,0,0,0,0,0,0,0,0,0,0,0,0,0,0,0,0,0,0,0,0,0,0,0,0,0,0,0,0,0,0,0,0],"sum_hessian":[9.395765E3,1.0981735E3,8.297591E3,1.0242303E3,7.3943115E1,7.3763096E3,9.212814E2,5.078094E1,9.7344946E2,4.0876656E0,6.9855446E1,6.935236E3,4.410735E2,1.358626E1,9.0769507E2,4.945978E1,1.3211576E0,9.484305E2,2.5018957E1,1.0897626E0,6.8765686E1,7.8245807E2,6.152778E3,4.3395395E2,7.119539E0,1.2045093E1,8.9564996E2,4.7850624E1,1.6091582E0,9.3611145E2,1.2319067E1,1.0189431E0,6.774674E1,7.0819476E2,7.426328E1,5.8497026E3,3.0307544E2,2.5768378E0,4.313771E2,1.0420798E0,6.0774593E0,1.09848385E1,1.0602542E0,9.35483E0,8.8629517E2,1.2717011E0,4.6578922E1,9.251487E2,1.0962711E1,1.1107452E0,6.6635994E1,6.8402997E2,2.4164835E1,6.199761E0,6.806352E1,5.726392E3,1.2331028E2,2.7955655E2,2.3518894E1,2.8644207E0,4.285127E2,1.0136071E0,5.063852E0,1.2613648E0,9.723474E0,8.349352E0,1.0054777E0,8.74826E2,1.1469146E1],"tree_param":{"num_deleted":"0","num_feature":"10007","num_nodes":"69","size_leaf_vector":"0"}},{"base_weights":[-7.1039046E-3,-7.8475125E-2,9.667348E-1,-1.3352115E-1,1.1418988E0,-6.287493E-1,1.0212282E0,-2.3443092E-1,5.4049957E-1,-8.6579746E-1,1.1783926E0,-1.018185E0,8.44518E-1,1.059313E0,-5.4915243E-1,-2.7495024E-1,1.357025E0,-1.7522513E0,5.936049E-1,-9.504683E-2,-1.7102575E-2,-5.31883E-1,1.2171316E0,3.502746E-1,-1.3004125E0,1.0135641E-1,9.320639E-3,1.0824264E0,-7.406855E-1,-8.934082E-1,9.851339E-2,-3.336402E-1,8.941478E-1,1.299504E0,1.6441403E-1,-8.9959525E-2,-1.8939099E-1,-1.7064524E0,6.385596E-1,-9.188627E-1,1.09081864E-1,1.23215E0,-1.2140872E-1,-3.3962306E-2,7.373618E-2,-1.4654691E0,-2.7473362E-3,1.1082034E0,-5.208509E-1,-9.429197E-2,2.532355E-2,2.7651662E-1,-1.2827417E0,-4.0945914E-2,5.7286438E-2,1.0093732E-1,-1.2289637E-1,3.0988146E-2,1.3042954E-1,-1.3669932E-2,-2.3763914E-1,-1.9926941E-1,6.732252E-2,-1.1678078E-1,3.533275E-2,1.2436533E-1,-1.1118704E-1,-1.5419109E-1,-2.9567072E-2,-1.089473E-1,1.1249099E-1,-1.255667E-1,4.895085E-2,-1.5661024E-2,7.7983E-2,1.2778136E-3,-1.444092E-1],"categories":[],"categories_nodes":[],"categories_segments":[],"categories_sizes":[],"default_left":[1,1,0,1,0,1,1,1,0,1,0,0,0,1,1,1,0,0,0,0,0,1,1,1,1,0,0,1,1,0,0,1,1,1,0,0,0,0,0,1,0,1,0,0,0,1,0,0,0,0,0,0,0,0,0,0,0,0,0,0,0,0,0,0,0,0,0,0,0,0,0,0,0,0,0,0,0],"id":20,"left_children":[1,3,5,7,9,11,13,15,17,19,21,23,25,27,29,31,33,35,37,-1,-1,39,41,43,45,-1,-1,47,49,51,-1,53,55,57,-1,-1,-1,59,61,63,-1,65,-1,-1,-1,67,-1,69,71,-1,-1,73,75,-1,-1,-1,-1,-1,-1,-1,-1,-1,-1,-1,-1,-1,-1,-1,-1,-1,-1,-1,-1,-1,-1,-1,-1],"loss_changes":[6.4071185E2,5.771186E2,5.5369934E1,5.5914355E2,2.8187439E1,1.3142656E1,3.7008057E1,4.61402E2,1.3138876E2,2.607627E-1,2.4803253E1,7.1701717E0,5.434096E-1,2.5555237E1,8.8450165E0,4.787287E2,7.977905E-1,1.2541046E0,1.09355286E2,0E0,0E0,6.510256E0,1.4524536E1,1.2546265E0,3.0326366E0,0E0,0E0,2.4871338E1,1.8743277E0,6.203493E0,0E0,4.566151E2,8.284595E1,3.203125E-1,0E0,0E0,0E0,2.10708E1,9.50849E1,2.8275228E0,0E0,1.0958313E1,0E0,0E0,0E0,7.0010376E-1,0E0,2.2478699E1,8.025478E0,0E0,0E0,1.0004148E0,2.0694332E0,0E0,0E0,0E0,0E0,0E0,0E0,0E0,0E0,0E0,0E0,0E0,0E0,0E0,0E0,0E0,0E0,0E0,0E0,0E0,0E0,0E0,0E0,0E0,0E0],"parents":[2147483647,0,0,1,1,2,2,3,3,4,4,5,5,6,6,7,7,8,8,9,9,10,10,11,11,12,12,13,13,14,14,15,15,16,16,17,17,18,18,21,21,22,22,23,23,24,24,27,27,28,28,29,29,31,31,32,32,33,33,37,37,38,38,39,39,41,41,45,45,47,47,48,48,51,51,52,52],"right_children":[2,4,6,8,10,12,14,16,18,20,22,24,26,28,30,32,34,36,38,-1,-1,40,42,44,46,-1,-1,48,50,52,-1,54,56,58,-1,-1,-1,60,62,64,-1,66,-1,-1,-1,68,-1,70,72,-1,-1,74,76,-1,-1,-1,-1,-1,-1,-1,-1,-1,-1,-1,-1,-1,-1,-1,-1,-1,-1,-1,-1,-1,-1,-1,-1],"split_conditions":[2.593737E-2,1.130123E-2,1.5390071E-1,5.574503E-2,1.6750046E0,4.9881887E-2,1.9327307E-2,6.25471E-2,1.2654877E0,4.5160875E-3,4.5009613E-2,7.5182706E-2,1.0549202E-1,3.1005183E-2,6.272951E-2,9.231043E-2,6.750278E-2,9.193195E-1,8.379943E-1,-9.504683E-2,-1.7102575E-2,4.099111E-2,2.8060282E-2,1.2035196E-2,2.3937717E-2,1.0135641E-1,9.320639E-3,3.7544217E-2,4.7331836E-2,-6.692403E-2,9.851339E-2,3.349925E-2,1.7096698E-2,1.9514774E-1,1.6441403E-1,-8.9959525E-2,-1.8939099E-1,1.9224966E-1,1.5089396E0,8.906892E-2,1.09081864E-1,4.1217152E-2,-1.2140872E-1,-3.3962306E-2,7.373618E-2,6.2332463E-2,-2.7473362E-3,3.5061204E-1,5.8388427E-2,-9.429197E-2,2.532355E-2,1.2748903E-1,5.19134E-2,-4.0945914E-2,5.7286438E-2,1.0093732E-1,-1.2289637E-1,3.0988146E-2,1.3042954E-1,-1.3669932E-2,-2.3763914E-1,-1.9926941E-1,6.732252E-2,-1.1678078E-1,3.533275E-2,1.2436533E-1,-1.1118704E-1,-1.5419109E-1,-2.9567072E-2,-1.089473E-1,1.1249099E-1,-1.255667E-1,4.895085E-2,-1.5661024E-2,7.7983E-2,1.2778136E-3,-1.444092E-1],"split_indices":[5289,2972,8960,1224,3324,5934,1502,9686,6366,1857,1224,6300,5299,9908,6631,4504,347,9908,9420,0,0,2314,8608,6093,5472,0,0,5167,5574,10001,0,1990,6489,7540,0,0,0,79,6574,9002,0,4486,0,0,0,5767,0,9411,5289,0,0,5289,5368,0,0,0,0,0,0,0,0,0,0,0,0,0,0,0,0,0,0,0,0,0,0,0,0],"split_type":[0,0,0,0,0,0,0,0,0,0,0,0,0,0,0,0,0,0,0,0,0,0,0,0,0,0,0,0,0,0,0,0,0,0,0,0,0,0,0,0,0,0,0,0,0,0,0,0,0,0,0,0,0,0,0,0,0,0,0,0,0,0,0,0,0,0,0,0,0,0,0,0,0,0,0,0,0],"sum_hessian":[9.216245E3,8.587779E3,6.284664E2,8.21799E3,3.69789E2,2.0408167E1,6.080582E2,7.148428E3,1.0695615E3,6.1959763E0,3.6359305E2,1.638574E1,4.0224266E0,5.939785E2,1.407968E1,6.971751E3,1.7667729E2,2.3488335E1,1.0460732E3,5.1948566E0,1.0011199E0,7.7712708E0,3.5582178E2,2.7603421E0,1.3625398E1,2.9986637E0,1.0237628E0,5.868417E2,7.1368566E0,1.1840639E1,2.239041E0,6.6391724E3,3.3257877E2,1.5179301E2,2.4884275E1,4.393554E0,1.909478E1,1.9345053E1,1.0267281E3,6.625077E0,1.1461943E0,3.541274E2,1.6943555E0,1.0361866E0,1.7241557E0,1.1927555E1,1.6978424E0,5.778598E2,8.981862E0,5.972865E0,1.1639915E0,3.0288596E0,8.81178E0,6.127245E3,5.11927E2,3.159558E2,1.6622955E1,1.0477962E0,1.5074522E2,6.1466684E0,1.3198383E1,1.2616354E1,1.0141118E3,5.6094546E0,1.0156219E0,3.5286517E2,1.2622486E0,1.0897355E1,1.0302E0,3.8752267E0,5.7398456E2,5.059434E0,3.9224277E0,1.998172E0,1.0306875E0,1.0778958E0,7.733884E0],"tree_param":{"num_deleted":"0","num_feature":"10007","num_nodes":"77","size_leaf_vector":"0"}},{"base_weights":[-8.6498685E-4,-8.043515E-2,7.775954E-1,-1.6790757E-1,7.35711E-1,-5.500498E-1,9.2678255E-1,-2.3537144E-1,7.634961E-1,-2.9912865E-1,7.6464176E-1,-9.19586E-1,1.3393681E-1,-1.0412605E0,9.72257E-1,-2.8199184E-1,1.2669747E0,8.602558E-1,-1.1525658E0,-1.655613E-1,7.9682505E-1,-1.1274681E0,1.4979635E-1,-1.0830559E-1,-1.7593442E-2,-5.1822007E-1,1.0133405E0,-3.2352465E-1,1.2876018E0,1.382266E-2,1.2717934E-1,8.973071E-1,-1.0623828E0,3.0817792E-1,-1.3680704E0,-3.3135313E-1,8.150749E-1,-1.207874E0,6.7753977E-1,1.0306501E0,-1.0210074E0,1.0365257E0,-1.5874858E0,-3.751935E-2,9.9090286E-2,-1.0224756E-1,1.5209767E-1,-1.0699042E-1,9.2867464E-2,-1.4429143E-1,6.83644E-2,8.714747E-2,-5.1900197E-2,6.406313E-2,-1.5728141E-1,-1.5762658E-1,8.432045E-2,1.0085415E-1,-1.2648396E-1,9.297051E-2,1.4060001E-2,2.0495597E-2,1.1695887E-1,-1.310845E-1,8.9861915E-2,-1.2174427E-1,1.05660856E-1,-3.1167993E-2,-1.7646928E-1],"categories":[],"categories_nodes":[],"categories_segments":[],"categories_sizes":[],"default_left":[1,1,0,1,0,1,0,1,1,0,0,1,0,1,0,1,0,1,0,0,0,1,0,0,0,0,1,1,0,0,0,0,1,0,0,0,0,0,0,0,1,0,0,0,0,0,0,0,0,0,0,0,0,0,0,0,0,0,0,0,0,0,0,0,0,0,0,0,0],"id":21,"left_children":[1,3,5,7,9,11,13,15,17,-1,19,21,-1,23,25,27,29,31,33,-1,35,37,-1,-1,-1,39,41,43,45,-1,-1,47,49,51,53,-1,55,57,59,61,63,65,67,-1,-1,-1,-1,-1,-1,-1,-1,-1,-1,-1,-1,-1,-1,-1,-1,-1,-1,-1,-1,-1,-1,-1,-1,-1,-1],"loss_changes":[5.603171E2,5.86018E2,1.6666272E2,4.6600177E2,8.796875E1,6.0836876E1,6.8536865E1,4.8456866E2,9.386301E1,0E0,6.2799988E1,3.7871815E1,0E0,4.4319916E-1,4.5714417E1,4.375846E2,9.569702E-1,3.4963226E1,8.13665E0,0E0,6.118335E1,1.0522903E1,0E0,0E0,0E0,1.6983683E1,4.4973022E1,4.441294E2,9.486267E1,0E0,0E0,2.9930237E1,7.2880545E0,2.3007061E0,9.866753E0,0E0,5.3594727E1,9.403481E0,3.421241E-1,3.9251947E-1,1.0050268E1,3.3550903E1,9.746189E-1,0E0,0E0,0E0,0E0,0E0,0E0,0E0,0E0,0E0,0E0,0E0,0E0,0E0,0E0,0E0,0E0,0E0,0E0,0E0,0E0,0E0,0E0,0E0,0E0,0E0,0E0],"parents":[2147483647,0,0,1,1,2,2,3,3,4,4,5,5,6,6,7,7,8,8,10,10,11,11,13,13,14,14,15,15,16,16,17,17,18,18,20,20,21,21,25,25,26,26,27,27,28,28,31,31,32,32,33,33,34,34,36,36,37,37,38,38,39,39,40,40,41,41,42,42],"right_children":[2,4,6,8,10,12,14,16,18,-1,20,22,-1,24,26,28,30,32,34,-1,36,38,-1,-1,-1,40,42,44,46,-1,-1,48,50,52,54,-1,56,58,60,62,64,66,68,-1,-1,-1,-1,-1,-1,-1,-1,-1,-1,-1,-1,-1,-1,-1,-1,-1,-1,-1,-1,-1,-1,-1,-1,-1,-1],"split_conditions":[2.6687322E-2,6.707993E-2,5.483666E-2,3.0224012E-2,1.6061409E0,7.281221E-2,5.923485E-1,8.032598E-2,3.4758843E-2,-2.9912865E-1,1.2654877E0,2.1837E-1,1.3393681E-1,3.8697183E-2,3.631378E-2,1.7698562E-2,7.849578E-2,8.174833E-2,1.3094021E-1,-1.655613E-1,3.9857936E-1,8.745006E-2,1.4979635E-1,-1.0830559E-1,-1.7593442E-2,6.3192345E-2,4.16339E-2,7.8446075E-2,3.1162694E-2,1.382266E-2,1.2717934E-1,1.8038398E-1,3.8986225E-2,4.7887443E-4,1.8387206E-1,-3.3135313E-1,1.5089396E0,1.0858307E-1,1.4347869E-1,3.567139E-1,8.8742375E-2,2.7512115E-1,6.107082E-2,-3.751935E-2,9.9090286E-2,-1.0224756E-1,1.5209767E-1,-1.0699042E-1,9.2867464E-2,-1.4429143E-1,6.83644E-2,8.714747E-2,-5.1900197E-2,6.406313E-2,-1.5728141E-1,-1.5762658E-1,8.432045E-2,1.0085415E-1,-1.2648396E-1,9.297051E-2,1.4060001E-2,2.0495597E-2,1.1695887E-1,-1.310845E-1,8.9861915E-2,-1.2174427E-1,1.05660856E-1,-3.1167993E-2,-1.7646928E-1],"split_indices":[7366,1224,347,5934,4459,7115,3324,7540,8985,0,6366,119,0,2637,1224,342,1990,7850,150,0,217,1500,0,0,0,465,4486,6347,1224,0,0,6432,682,10000,1990,0,6574,8180,3921,883,1033,2825,3767,0,0,0,0,0,0,0,0,0,0,0,0,0,0,0,0,0,0,0,0,0,0,0,0,0,0],"split_type":[0,0,0,0,0,0,0,0,0,0,0,0,0,0,0,0,0,0,0,0,0,0,0,0,0,0,0,0,0,0,0,0,0,0,0,0,0,0,0,0,0,0,0,0,0,0,0,0,0,0,0,0,0,0,0,0,0,0,0,0,0,0,0,0,0,0,0,0,0],"sum_hessian":[9.043792E3,8.205923E3,8.3786993E2,7.412287E3,7.9363525E2,8.436879E1,7.5350116E2,6.9123555E3,4.9993176E2,5.324418E0,7.8831085E2,7.099645E1,1.3372336E1,1.6522957E1,7.369782E2,6.705097E3,2.0725853E2,4.7642377E2,2.3508009E1,9.683007E0,7.7862787E2,6.5866325E1,5.1301312E0,1.5521645E1,1.001312E0,1.9457571E1,7.175206E2,6.5330215E3,1.7207556E2,1.0072161E0,2.0625131E2,4.6793933E2,8.484413E0,2.9669878E0,2.0541021E1,2.6436465E0,7.759842E2,6.3374084E1,2.4922388E0,4.5110636E0,1.4946508E1,7.1177686E2,5.743748E0,6.286615E3,2.46406E2,1.5478574E1,1.5659698E2,6.8246303E0,4.6111472E2,7.108728E0,1.3756849E0,1.733174E0,1.2338138E0,1.7031173E0,1.8837904E1,8.381974E0,7.6760223E2,1.1694324E0,6.2204655E1,1.1980872E0,1.2941514E0,1.0062432E0,3.5048203E0,1.3261358E1,1.68515E0,5.7593756E0,7.060175E2,1.0369622E0,4.706786E0],"tree_param":{"num_deleted":"0","num_feature":"10007","num_nodes":"69","size_leaf_vector":"0"}},{"base_weights":[2.8566993E-3,-9.905524E-1,6.5864414E-2,-1.0044602E0,1.1051172E0,-1.1155937E0,1.2088049E-1,8.7921634E-2,-1.0147114E0,2.0248415E-2,1.36172E-1,-1.1176763E-1,-1.7925976E-2,-1.2138857E0,1.654218E-1,8.5695274E-2,-1.0321553E0,-1.3559664E0,1.083901E0,2.1002674E-1,-1.1068057E0,-5.820541E-1,1.2820867E-1,-1.0404422E0,1.0301454E-1,-1.3914211E0,9.1664925E-2,-5.4348458E-2,1.2798712E0,2.5489017E-1,-1.040132E0,-1.2310821E0,5.850346E-1,-8.8502765E-2,5.0742757E-2,-1.0493138E-1,4.2681325E-2,9.338687E-2,-1.4192721E-1,1.3442402E-1,2.520895E-2,3.0116335E-2,-1.0479148E-1,1.1315725E-1,-1.1785497E-1,1.3823847E-1,-1.3064705E-1,8.8789456E-2,-1.1160924E-1],"categories":[],"categories_nodes":[],"categories_segments":[],"categories_sizes":[],"default_left":[0,1,0,0,0,1,0,0,0,0,0,0,0,1,1,1,1,1,0,1,1,1,0,1,0,0,0,0,1,1,0,0,1,0,0,0,0,0,0,0,0,0,0,0,0,0,0,0,0],"id":22,"left_children":[1,3,5,7,9,11,13,-1,15,-1,-1,-1,-1,17,19,21,23,25,27,29,31,33,-1,35,-1,37,-1,-1,39,41,43,45,47,-1,-1,-1,-1,-1,-1,-1,-1,-1,-1,-1,-1,-1,-1,-1,-1],"loss_changes":[5.5301013E2,1.646875E1,5.4015485E2,1.1010498E1,6.392064E-1,5.206909E-1,4.7221237E2,0E0,1.0101196E1,0E0,0E0,0E0,0E0,8.521002E1,4.362721E2,7.986804E0,9.848694E0,2.0775269E1,5.636471E0,4.166736E2,5.5477875E1,2.5961227E0,0E0,7.11261E0,0E0,1.6783203E1,0E0,0E0,5.956383E-1,4.3243805E2,7.870877E1,4.9670166E1,1.0521851E1,0E0,0E0,0E0,0E0,0E0,0E0,0E0,0E0,0E0,0E0,0E0,0E0,0E0,0E0,0E0,0E0],"parents":[2147483647,0,0,1,1,2,2,3,3,4,4,5,5,6,6,8,8,13,13,14,14,15,15,16,16,17,17,18,18,19,19,20,20,21,21,23,23,25,25,28,28,29,29,30,30,31,31,32,32],"right_children":[2,4,6,8,10,12,14,-1,16,-1,-1,-1,-1,18,20,22,24,26,28,30,32,34,-1,36,-1,38,-1,-1,40,42,44,46,48,-1,-1,-1,-1,-1,-1,-1,-1,-1,-1,-1,-1,-1,-1,-1,-1],"split_conditions":[9.193195E-1,3.461913E-2,1.6750046E0,2.7744576E-1,7.4773155E-2,5.1220924E-2,8.576324E-1,8.7921634E-2,4.9140166E-2,2.0248415E-2,1.36172E-1,-1.1176763E-1,-1.7925976E-2,3.812073E-2,6.195949E-2,2.6360856E-2,7.44535E-2,1.1548017E-1,6.533653E-2,2.0962035E-2,2.8759288E-2,1.820956E-2,1.2820867E-1,2.6093865E-2,1.0301454E-1,9.665928E-2,9.1664925E-2,-5.4348458E-2,4.1829795E-2,2.6843606E-2,2.4010623E-1,2.064214E-1,2.6045248E-2,-8.8502765E-2,5.0742757E-2,-1.0493138E-1,4.2681325E-2,9.338687E-2,-1.4192721E-1,1.3442402E-1,2.520895E-2,3.0116335E-2,-1.0479148E-1,1.1315725E-1,-1.1785497E-1,1.3823847E-1,-1.3064705E-1,8.8789456E-2,-1.1160924E-1],"split_indices":[9908,3970,3324,9799,9293,1741,4917,0,5958,0,0,0,0,4851,3741,4705,3479,682,1485,5262,757,757,0,1156,0,6975,0,0,1643,9410,8703,6220,5554,0,0,0,0,0,0,0,0,0,0,0,0,0,0,0,0],"split_type":[0,0,0,0,0,0,0,0,0,0,0,0,0,0,0,0,0,0,0,0,0,0,0,0,0,0,0,0,0,0,0,0,0,0,0,0,0,0,0,0,0,0,0,0,0,0,0,0,0],"sum_hessian":[8.833054E3,5.259505E2,8.307103E3,5.230003E2,2.9501803E0,3.687612E2,7.938342E3,2.3719788E0,5.206283E2,1.0490627E0,1.9011176E0,3.6774957E2,1.0116211E0,2.5550125E2,7.6828403E3,8.063281E0,5.1256506E2,2.4100867E2,1.4492581E1,7.4234067E3,2.5943344E2,5.504508E0,2.5587735E0,5.1100717E2,1.5578763E0,2.3768828E2,3.3203895E0,1.3670398E0,1.3125542E1,7.1670063E3,2.5640054E2,2.4193417E2,1.7499252E1,4.4536543E0,1.0508535E0,5.0821912E2,2.788053E0,2.4281728E0,2.352601E2,1.2062194E1,1.0633475E0,6.921922E3,2.4508464E2,1.4933062E1,2.4146747E2,6.297111E0,2.3563707E2,1.5260421E1,2.2388325E0],"tree_param":{"num_deleted":"0","num_feature":"10007","num_nodes":"49","size_leaf_vector":"0"}},{"base_weights":[1.8120141E-3,-6.2666826E-2,9.403318E-1,2.0610464E-3,-1.0108002E0,-3.487767E-1,9.920804E-1,8.11336E-2,-7.2541094E-1,-1.0985093E0,2.1023433E-1,-6.242197E-1,1.4855598E-1,-2.5595757E-1,1.0458058E0,1.3402067E-1,-1.1320553E0,-8.258501E-1,1.2672602E0,-1.124198E0,1.2979509E0,-1.178232E-1,6.0888E-1,9.631011E-2,-8.606067E-1,1.0930834E-1,-7.577867E-1,1.0671653E0,-1.3850669E0,-1.2361349E0,1.7810221E-1,1.09358884E-1,-1.1665449E0,-9.4391406E-1,9.965036E-1,1.3515543E0,-7.703286E-2,-1.1637421E0,3.348394E-1,1.4748745E-1,3.2854296E-2,-1.6056575E-1,8.3029974E-1,8.4433205E-2,-1.0449195E0,-1.0108527E0,1.1130732E-1,1.0886472E0,-9.250624E-1,-1.5920322E-1,-3.9380703E-2,-1.4473483E-1,5.1918782E-2,2.312073E-2,-1.0112708E-1,-1.18790165E-1,9.056547E-2,-1.03983305E-1,4.0874884E-2,-9.064289E-2,1.0902884E-1,1.3909909E-1,3.6895562E-2,-1.198112E-1,2.7350817E-2,-1.5119268E-1,7.758763E-2,-1.2914239E-1,1.01745464E-1,-1.13517165E-1,1.4476905E-2,-1.2027738E-1,8.233585E-2,-1.3715407E-1,1.10567085E-1,-1.3625698E-1,5.9630383E-2],"categories":[],"categories_nodes":[],"categories_segments":[],"categories_sizes":[],"default_left":[1,1,0,1,1,1,0,1,1,1,0,0,0,0,1,0,0,1,1,1,0,0,0,0,0,0,1,1,0,1,1,0,1,1,0,1,0,1,0,0,0,0,0,0,1,1,0,0,1,0,0,0,0,0,0,0,0,0,0,0,0,0,0,0,0,0,0,0,0,0,0,0,0,0,0,0,0],"id":23,"left_children":[1,3,5,7,9,11,13,15,17,19,21,23,-1,25,27,29,31,33,35,37,39,-1,41,-1,43,-1,45,47,49,51,53,-1,55,57,59,61,-1,63,65,-1,-1,-1,67,-1,69,71,-1,73,75,-1,-1,-1,-1,-1,-1,-1,-1,-1,-1,-1,-1,-1,-1,-1,-1,-1,-1,-1,-1,-1,-1,-1,-1,-1,-1,-1,-1],"loss_changes":[5.2633545E2,4.994696E2,3.7645844E1,4.3835214E2,5.5931885E1,1.22041235E1,3.63291E1,4.4115878E2,1.5057285E2,3.1341553E1,2.0475092E1,8.3743E0,0E0,1.6398933E1,2.826056E1,3.9807242E2,2.3323364E1,1.540993E2,7.266388E0,2.8129944E1,4.7799873E-1,0E0,1.525514E1,0E0,6.5483084E0,0E0,9.341624E0,2.2914368E1,3.840723E-1,7.691977E1,4.0337427E2,0E0,1.361441E1,8.723242E1,8.804905E0,8.4954834E-1,0E0,2.3462402E1,1.2139125E1,0E0,0E0,0E0,1.1825249E1,0E0,1.9594574E0,6.5560665E0,0E0,2.2745544E1,4.8070903E0,0E0,0E0,0E0,0E0,0E0,0E0,0E0,0E0,0E0,0E0,0E0,0E0,0E0,0E0,0E0,0E0,0E0,0E0,0E0,0E0,0E0,0E0,0E0,0E0,0E0,0E0,0E0,0E0],"parents":[2147483647,0,0,1,1,2,2,3,3,4,4,5,5,6,6,7,7,8,8,9,9,10,10,11,11,13,13,14,14,15,15,16,16,17,17,18,18,19,19,20,20,22,22,24,24,26,26,27,27,28,28,29,29,30,30,32,32,33,33,34,34,35,35,37,37,38,38,42,42,44,44,45,45,47,47,48,48],"right_children":[2,4,6,8,10,12,14,16,18,20,22,24,-1,26,28,30,32,34,36,38,40,-1,42,-1,44,-1,46,48,50,52,54,-1,56,58,60,62,-1,64,66,-1,-1,-1,68,-1,70,72,-1,74,76,-1,-1,-1,-1,-1,-1,-1,-1,-1,-1,-1,-1,-1,-1,-1,-1,-1,-1,-1,-1,-1,-1,-1,-1,-1,-1,-1,-1],"split_conditions":[2.9764326E-2,1.6063243E-2,2.6584584E-2,2.781318E-2,2.6817804E-2,5.239528E-2,7.295173E-2,7.817178E-3,5.595463E-2,6.360834E-2,6.496096E-2,1.2809466E-1,1.4855598E-1,1.0720412E-1,6.322088E-2,1.2908775E0,1.5957226E-1,3.457759E-2,7.006064E-2,5.800601E-2,-5.6532364E-2,-1.178232E-1,1.7894858E-1,9.631011E-2,4.1298088E-1,1.0930834E-1,4.6701066E-2,5.9063897E-2,4.5652326E-2,3.3873647E-2,3.7514046E-2,1.09358884E-1,9.721587E-2,4.6414766E-2,5.7373613E-2,4.8720066E-2,-7.703286E-2,1.130123E-2,1.00246914E-1,1.4748745E-1,3.2854296E-2,-1.6056575E-1,1.2566093E0,8.4433205E-2,2.1249471E-2,1.17615946E-1,1.1130732E-1,2.940598E-1,7.397004E-2,-1.5920322E-1,-3.9380703E-2,-1.4473483E-1,5.1918782E-2,2.312073E-2,-1.0112708E-1,-1.18790165E-1,9.056547E-2,-1.03983305E-1,4.0874884E-2,-9.064289E-2,1.0902884E-1,1.3909909E-1,3.6895562E-2,-1.198112E-1,2.7350817E-2,-1.5119268E-1,7.758763E-2,-1.2914239E-1,1.01745464E-1,-1.13517165E-1,1.4476905E-2,-1.2027738E-1,8.233585E-2,-1.3715407E-1,1.10567085E-1,-1.3625698E-1,5.9630383E-2],"split_indices":[5289,8985,1224,8953,1990,869,8985,9325,4659,5751,1224,2774,0,7366,3867,5405,8318,5843,311,4504,10001,0,2793,0,5173,0,2371,8960,10001,682,4576,0,7599,4504,1224,5116,0,2972,9706,0,0,0,3505,0,5751,5593,0,5326,5299,0,0,0,0,0,0,0,0,0,0,0,0,0,0,0,0,0,0,0,0,0,0,0,0,0,0,0,0],"split_type":[0,0,0,0,0,0,0,0,0,0,0,0,0,0,0,0,0,0,0,0,0,0,0,0,0,0,0,0,0,0,0,0,0,0,0,0,0,0,0,0,0,0,0,0,0,0,0,0,0,0,0,0,0,0,0,0,0,0,0,0,0,0,0,0,0,0,0,0,0,0,0,0,0,0,0,0,0],"sum_hessian":[8.695677E3,8.137539E3,5.5813763E2,7.618436E3,5.191032E2,2.1319035E1,5.368186E2,6.872336E3,7.460999E2,4.8440768E2,3.469553E1,1.9109295E1,2.2097392E0,2.199983E1,5.148188E2,6.5861143E3,2.8622186E2,7.108553E2,3.5244602E1,4.7979547E2,4.612218E0,7.3032E0,2.7392328E1,2.0784435E0,1.7030851E1,5.6453996E0,1.6354431E1,5.1089072E2,3.9280727E0,2.0444522E2,6.381669E3,3.8991423E0,2.8232272E2,6.680563E2,4.279899E1,3.4167786E1,1.0768156E0,4.673318E2,1.24636755E1,3.4594305E0,1.1527873E0,1.9216126E0,2.5470716E1,1.312152E0,1.5718699E1,1.4810713E1,1.543718E0,5.058893E2,5.0014005E0,2.748205E0,1.1798676E0,1.8264365E2,2.1801579E1,6.1096797E3,2.7198935E2,2.7986508E2,2.4576423E0,6.240364E2,4.401993E1,1.6032568E0,4.1195732E1,3.244979E1,1.7179973E0,4.5657968E2,1.0752101E1,1.9346293E0,1.0529046E1,1.5863546E0,2.3884361E1,1.4652925E1,1.0657755E0,1.3719444E1,1.0912677E0,2.9297113E0,5.0295963E2,3.9654212E0,1.0359793E0],"tree_param":{"num_deleted":"0","num_feature":"10007","num_nodes":"77","size_leaf_vector":"0"}},{"base_weights":[2.8601573E-3,-7.447571E-2,7.2136724E-1,-1.3316492E-2,-1.0709159E0,3.148436E-1,9.969765E-1,8.579943E-2,-6.370706E-1,-1.1139574E0,9.765815E-1,-1.0243162E-3,1.1152761E0,-6.930991E-1,1.0393876E0,1.3897893E-1,-1.1352385E0,6.8426776E-1,-7.880783E-1,-1.1384547E0,9.82273E-1,-7.257526E-2,1.4622794E-1,-1.4222883E0,1.6809994E-1,1.1988578E0,-9.674255E-2,-1.1026762E0,1.0168516E-1,-1.0022798E0,1.0653315E0,1.8169913E-1,-1.2853491E0,-1.1749148E0,4.694519E-1,-1.1636065E0,9.272116E-1,1.6528854E0,-8.537208E-1,1.3175653E-1,-1.1589892E0,-3.600106E-3,1.2569454E-1,-1.5548943E0,2.0926403E-2,1.477353E-1,2.8805858E-2,1.2402647E0,-6.47945E-2,3.2233953E-2,-1.2829224E0,2.4780076E-2,-1.2756726E-1,1.078327E0,-1.8034455E-1,-1.6761577E-1,2.1372633E-2,1.4471449E-1,-1.5070416E-1,-1.2110522E-1,5.140194E-3,-7.0003316E-2,8.0609456E-2,-8.407439E-3,-1.2528716E-1,-1.5347199E-1,1.0102936E-1,2.2781407E-2,1.7058907E-1,-9.431638E-2,6.780036E-2,-1.1802107E-1,8.266849E-2,-1.6264513E-1,7.1370654E-4,-1.1020045E-2,9.7804256E-2,1.2726323E-1,-4.785729E-2,-1.0867074E-2,-1.409691E-1,1.08988345E-1,-1.8881124E-1],"categories":[],"categories_nodes":[],"categories_segments":[],"categories_sizes":[],"default_left":[1,1,1,1,1,1,0,1,0,1,0,0,1,1,0,1,1,0,0,0,0,0,0,1,0,1,0,0,0,0,1,0,0,1,0,0,0,0,1,0,1,0,0,1,0,0,1,1,0,0,0,0,0,1,0,0,0,0,0,0,0,0,0,0,0,0,0,0,0,0,0,0,0,0,0,0,0,0,0,0,0,0,0],"id":24,"left_children":[1,3,5,7,9,11,13,15,17,19,21,23,25,27,29,31,33,35,37,39,41,-1,-1,43,45,47,-1,49,-1,51,53,55,57,59,61,63,65,67,69,-1,71,-1,-1,73,-1,-1,75,77,-1,-1,79,-1,-1,81,-1,-1,-1,-1,-1,-1,-1,-1,-1,-1,-1,-1,-1,-1,-1,-1,-1,-1,-1,-1,-1,-1,-1,-1,-1,-1,-1,-1,-1],"loss_changes":[4.7575125E2,4.71057E2,9.29043E1,4.5037415E2,4.0480286E1,8.5362335E1,3.6227844E1,4.083374E2,1.9984137E2,2.3623718E1,9.111094E0,5.8670063E1,1.7789978E1,1.0034449E1,2.6686035E1,3.6681555E2,1.726175E1,4.7309494E1,1.4511694E2,2.3397827E1,1.6113272E0,0E0,0E0,5.9410553E0,3.973834E1,7.8614655E0,0E0,3.1739693E0,0E0,2.566259E0,1.9767334E1,3.4844672E2,1.0852994E2,1.1425293E1,3.3387833E0,1.090477E0,2.0280525E1,1.4112244E0,1.2038452E2,0E0,1.9120544E1,0E0,0E0,2.7079964E0,0E0,0E0,2.625702E1,5.6503143E0,0E0,0E0,1.2968616E0,0E0,0E0,1.8394287E1,0E0,0E0,0E0,0E0,0E0,0E0,0E0,0E0,0E0,0E0,0E0,0E0,0E0,0E0,0E0,0E0,0E0,0E0,0E0,0E0,0E0,0E0,0E0,0E0,0E0,0E0,0E0,0E0,0E0],"parents":[2147483647,0,0,1,1,2,2,3,3,4,4,5,5,6,6,7,7,8,8,9,9,10,10,11,11,12,12,13,13,14,14,15,15,16,16,17,17,18,18,19,19,20,20,23,23,24,24,25,25,27,27,29,29,30,30,31,31,32,32,33,33,34,34,35,35,36,36,37,37,38,38,40,40,43,43,46,46,47,47,50,50,53,53],"right_children":[2,4,6,8,10,12,14,16,18,20,22,24,26,28,30,32,34,36,38,40,42,-1,-1,44,46,48,-1,50,-1,52,54,56,58,60,62,64,66,68,70,-1,72,-1,-1,74,-1,-1,76,78,-1,-1,80,-1,-1,82,-1,-1,-1,-1,-1,-1,-1,-1,-1,-1,-1,-1,-1,-1,-1,-1,-1,-1,-1,-1,-1,-1,-1,-1,-1,-1,-1,-1,-1],"split_conditions":[2.8002504E-2,8.375584E-3,1.8825E-2,2.8371092E-2,3.2321375E-2,2.56961E-2,1.2403884E-1,7.817178E-3,1.1374451E0,7.774563E-2,1.2249875E-1,5.667138E-1,7.5951904E-2,4.9213003E-2,3.8915405E-1,7.622461E-3,1.0262181E-1,1.9915858E-1,5.354567E-1,5.2441657E-1,-1.0329485E-1,-7.257526E-2,1.4622794E-1,1.7181665E-2,